tree
version=v3
num_class=1
num_tree_per_iteration=1
label_index=0
max_feature_idx=77
objective=binary sigmoid:1
feature_names=app device os channel click_time_wd click_time_h click_time_m ip_prev_click_delta ip_os_device_prev_click_delta ip_channel_prev_click_delta ip_os_device_channel_prev_click_delta ip_app_prev_click_delta ip_os_device_app_prev_click_delta ip_bucket_v2_0 ip_bucket_v2_1 ip_bucket_v2_2 ip_bucket_v2_3 ip_bucket_v2_4 ip_bucket_v2_5 ip_bucket_v2_6 ip_bucket_v2_7 ip_bucket_v2_8 ip_bucket_v2_9 ip_bucket_v2_10 ip_bucket_v2_11 ip_bucket_v2_12 ip_bucket_v2_13 ip_bucket_v2_14 ip_bucket_v2_15 ip_bucket_v2_16 ip_bucket_v2_17 ip_bucket_v2_18 ip_bucket_v2_19 ip_bucket_v2_20 ip_bucket_v2_21 ip_bucket_v2_22 ip_bucket_v2_23 ip_bucket_v2_24 ip_bucket_v2_25 ip_bucket_v2_26 ip_bucket_v2_27 ip_bucket_v2_28 ip_bucket_v2_29 ip_bucket_v2_30 ip_bucket_v2_31 ip_bucket_v2_32 ip_bucket_v2_33 ip_bucket_v2_34 ip_bucket_v2_35 ip_bucket_v2_36 ip_os_past_cumcount ip_device_past_cumcount ip_app_past_cumcount ip_os_device_app_past_cumcount ip_click_time_rounded_minute_past_cumcount ip_os_device_click_time_rounded_minute_past_cumcount ip_click_time_dt_past_cumcount ip_channel_click_time_dt_past_cumcount ip_app_click_time_dt_past_cumcount ip_os_device_click_time_dt_past_cumcount ip_os_device_channel_click_time_dt_past_cumcount ip_os_device_app_click_time_dt_past_cumcount ip_channel_cunique ip_app_cunique ip_click_time_rounded_hour_cunique ip_click_time_rounded_minute_cunique ip_os_device_app_cunique ip_os_device_click_time_rounded_hour_cunique ip_os_device_click_time_rounded_minute_cunique ip_os_device_click_time_wd_click_time_rounded_hour_cunique ip_os_device_click_time_wd_click_time_rounded_minute_cunique ip_os_device_app_click_time_wd_click_time_rounded_hour_cunique ip_os_device_app_click_time_wd_click_time_rounded_minute_cunique ip_os_device_channel_click_time_wd_click_time_rounded_hour_cunique ip_os_device_channel_click_time_wd_click_time_rounded_minute_cunique ip_os_device_click_time_rounded_hour_click_time_rounded_minute_cunique ip_os_device_app_click_time_rounded_hour_click_time_rounded_minute_cunique ip_os_device_channel_click_time_rounded_hour_click_time_rounded_minute_cunique
feature_infos=-1:3:12:2:9:15:18:14:1:8:13:21:11:26:23:6:20:24:64:25:27:28:7:17:19:10:22:29:5:151:55:32:4:36:35:56:58:94:47:150:160:208:93:82:45:46:183:44:72:33:37:88:39:38:62:83:109:65:80:54:215:74:60:66:95:103:68:76:101:107:110:121:52:59:419:134:145:170:61:84:85:86:91:315:53:181:202:232:265:536:43:81:87:99:100:137:207:0:42:50 -1:1:2:3032:0:3866:5:6:59:21:40:33:16:18:46:203:56:88:109:7:37:78:97:154:231:234:299:3033:3867 -1:19:13:17:18:22:10:8:6:9:15:25:20:16:3:37:41:14:1:12:27:23:35:32:28:607:53:11:47:30:26:31:2:36:49:40:4:42:24:0:43:34:46:58:866:7:5:48:38:44:56:21:65:70:79:29:66:52:64:39:50:55:77:97:62:73:63:98:76:90:45:57:100:96:69:85:109:59:60:74:83:80:71:68:72:67:111:112:61:84:87:102:132:81:92:106:113:118:133:54 -1:107:280:245:134:259:477:153:121:178:265:205:145:442:379:128:459:140:439:135:215:122:489:480:469:219:237:137:435:232:409:328:452:466:334:105:424:101:115:377:371:173:401:19:125:130:212:127:244:315:258:236:3:463:349:266:386:347:234:481:364:211:213:319:113:445:412:111:278:430:400:208:277:417:124:497:478:326:376:116:118:343:340:325:402:317:487:110:30:123:21:243:360:242:467:150:17:406:120:496:449:182:13:446:421:330:416 -1:1:0:3 -1:0:13:14:1:3:23:16:17:2:22:18:21:19:20 -1:20:15:14:22:18:23:13:16:21:0:19:17:12:58:6:32:45:56:35:5:39:8:24:29:47:37:44:25:34:49:28:27:42:57:2:53:36:52:40:26:54:9:48:41:51:38:50:10:7:55:3:31:33:4:46:43:59:11:1:30 [1:54471] [1:81360] [1:82223] [1:82419] [1:82134] [1:82419] [0:1] [0:1] [0:1] [0:1] [0:1] [0:1] [0:1] [0:1] [0:1] [0:1] [0:1] [0:1] [0:1] [0:1] [0:1] [0:1] [0:1] [0:1] [0:1] [0:1] [0:1] [0:1] [0:1] [0:1] [0:1] [0:1] [0:1] [0:1] [0:1] [0:1] [0:1] [0:1] [0:1] [0:1] [0:1] [0:1] [0:1] [0:153863] [0:153863] [0:153863] [0:32388] [0:153863] [0:32388] [0:153863] [0:12977] [0:28621] [0:32388] [0:2905] [0:7023] [1:145] [1:159] [1:17] [1:794] [1:56] [1:17] [1:792] [1:10] [1:480] [1:10] [1:474] [1:9] [1:426] [1:61] [1:61] [1:61]
tree_sizes=19295 19957 19455 17801 19746 19691 20494 18069 17537 19094 19671 19723 18978 20128 17919 17849 19473 19513 19589 19562 17665 19161 17708 17807 18193 20000 19311 18161 19277 17633 19455 19394 17664 19183 17911 19331 19495 19315 18936 20259 19803 19594 19974 17739 20233 18869 19278 19212 18248 19910 17942 19338 20018 19357 19626 19949 19405 19984 18266 17674 19610 17705 17465 19935 19396 19337 19663 18100 20021 18225 19393 18254 18134 19996 19649 19767 19568 17205 17929 19851 20297 18076 19988 20393 17786 17630 17645 19802 19823 19616 17687 20061 19301 18262 20077 20435 20013 18306 20056 19783 18263 19897 19712 21015 20343 18214 19393 20093 19259 20087 20833 19440 20883 20854 20917 20361 17704 19478 19745 17656 20572 21357 19831 20019 20243 17730 20312 17727 20116 20643 17669 17842 20584 20601 19880 21486 20189 20110 20228 18279 17580 19561 20686 20760 20854 18450 20757 18166 20114

Tree=0
num_leaves=152
num_cat=80
split_feature=0 65 3 3 0 53 1 3 3 76 4 3 0 3 3 0 4 3 3 65 4 0 62 0 0 67 69 69 3 69 65 4 3 58 3 4 3 3 0 3 3 72 62 53 0 8 3 58 53 3 0 76 4 3 70 67 3 76 12 1 53 5 0 53 8 76 3 53 65 70 3 62 20 5 62 0 0 7 0 76 5 3 12 8 69 3 3 51 0 0 3 0 72 3 3 76 76 12 3 53 69 3 72 3 65 1 5 3 62 70 0 5 12 0 1 5 0 3 3 62 12 72 5 11 3 65 53 0 3 0 69 51 60 12 3 11 0 11 0 53 70 72 67 3 0 53 70 51 62 65 67
split_gain=3.68965e+07 3.48253e+06 584177 451653 413090 281555 160431 139336 105753 103431 142378 95673.3 64577.9 74963.3 60615.5 54604.4 54369.1 51467.5 51413 49218.2 37111.3 36704.9 29595 29167.3 29048.1 27154.7 26619.5 26291.7 24660.4 23810.8 23629.2 23535.9 20371.7 19419.1 18421.5 41932.7 17936.8 16339.5 15824 16822.6 14701.5 14147.4 12948 14495.6 12869.6 18506.2 12634.7 12145.3 23204.6 13763.8 14216.9 12005.7 11686.8 11608.8 11542.1 11302 11187.9 10970.6 12975.2 10548 10503.8 12033 10421.3 10042.3 9577.94 9414.9 9259.61 9227.39 9195.33 17413.1 9642.46 9185.36 9549.7 9101.94 9025.61 47651.6 11861.5 8514.35 8428.07 8421.82 8311.15 8298.37 8912.57 8195.77 8313.18 8185.14 12981.8 15069.3 8224.49 11311.6 8158.11 8141.98 8046.38 7437.33 7426.67 7266.49 7148.62 9364.72 6991.1 6901.89 6859.04 9297 6656.25 6388.47 6320.61 6149.26 6062.95 6015.23 5831 9405.54 15294.4 8692.37 5713.9 5697.78 5554.84 5385.38 5370.61 5285.62 5163.22 5153.04 5128.51 5564.85 7469.09 5907.9 5310.6 5091.08 5055.16 4957.52 4942.1 5265.56 4914.58 4868.42 4742.98 6576.55 4671.38 4594.95 9573.15 4538.32 4457.81 4443.63 4329.36 4314.24 4933.84 4306.64 4285.26 4261.58 5973.97 4254.69 4245.41 4225.54 6204.89
threshold=0 5.5000000000000009 1 2 3 1.5000000000000002 4 5 6 1.5000000000000002 7 8 9 10 11 12 13 14 15 11.500000000000002 16 17 41.500000000000007 18 19 12.500000000000002 3.5000000000000004 3.5000000000000004 20 3.5000000000000004 62.500000000000007 21 22 5.5000000000000009 23 24 25 26 27 28 29 1.5000000000000002 44.500000000000007 166.50000000000003 30 38.500000000000007 31 1.0000000180025095e-35 280.50000000000006 32 33 1.5000000000000002 34 35 28.500000000000004 4.5000000000000009 36 4.5000000000000009 2976.5000000000005 37 353.50000000000006 38 39 70.500000000000014 169.50000000000003 1.5000000000000002 40 55.500000000000007 11.500000000000002 20.500000000000004 41 138.50000000000003 1.0000000180025095e-35 42 27.500000000000004 43 44 6.5000000000000009 45 2.5000000000000004 46 47 1296.5000000000002 61.500000000000007 3.5000000000000004 48 49 134.50000000000003 50 51 52 53 2.5000000000000004 54 55 1.5000000000000002 4.5000000000000009 2007.5000000000002 56 548.50000000000011 3.5000000000000004 57 1.5000000000000002 58 68.500000000000014 59 60 61 6.5000000000000009 19.500000000000004 62 63 598.50000000000011 64 65 66 67 68 69 41.500000000000007 2435.5000000000005 2.5000000000000004 70 2107.5000000000005 71 18.500000000000004 280.50000000000006 72 73 74 3.5000000000000004 1.0000000180025095e-35 1.5000000000000002 3.5000000000000004 75 32.500000000000007 76 19764.500000000004 77 174.50000000000003 18.500000000000004 1.5000000000000002 10.500000000000002 78 79 64.500000000000014 16.500000000000004 2777.5000000000005 46.500000000000007 11.500000000000002 2.5000000000000004
decision_type=9 2 9 9 9 2 9 9 9 2 1 9 9 9 9 9 1 9 9 2 1 9 2 9 9 2 2 2 9 2 2 1 9 2 9 1 9 9 9 9 9 2 2 2 9 8 9 2 2 9 9 2 1 9 2 2 9 2 8 9 2 9 9 2 10 2 9 2 2 2 9 2 2 9 2 9 9 8 9 2 9 9 8 8 2 9 9 2 9 9 9 9 2 9 9 2 2 8 9 2 2 9 2 9 2 9 9 9 2 2 9 9 8 9 9 9 9 9 9 2 8 2 9 10 9 2 2 9 9 9 2 2 2 8 9 10 9 10 9 2 2 2 2 9 9 2 2 2 2 2 2
left_child=3 5 8 15 9 7 19 31 -3 10 40 -8 -10 -14 53 26 38 59 22 20 56 28 134 68 65 52 60 30 -9 54 125 143 71 74 35 66 -22 -18 -16 -40 42 114 64 -44 45 106 -41 48 49 50 -26 93 57 -7 80 -32 62 58 92 -5 61 -1 -6 105 -4 100 131 -43 -19 70 -70 96 -73 -17 -25 83 -77 -48 -65 81 -15 82 140 84 -76 -51 -87 102 -89 -90 -33 -79 130 -38 -49 -37 97 99 -93 -27 104 141 119 -64 -21 113 -35 -53 -61 110 -110 -112 -109 -24 132 127 -72 -66 -101 -88 121 122 123 -54 145 -20 -42 -55 -58 -130 -11 -23 133 -29 -12 136 -131 -128 -74 -67 -34 142 -102 -2 -69 -123 -147 -139 -82 150 -126
right_child=1 2 4 17 6 14 11 21 12 25 18 -13 13 29 16 73 37 23 27 24 36 34 63 33 47 32 -28 41 -30 -31 55 90 79 44 -36 95 51 -39 39 46 126 67 43 -45 -46 -47 77 94 -50 85 -52 107 120 115 -56 -57 128 -59 -60 108 -62 -63 103 78 117 139 -68 144 69 -71 116 72 138 -75 75 76 -78 91 -80 -81 148 -83 -84 -85 -86 86 87 88 89 -91 -92 98 -94 -95 -96 -97 -98 -99 -100 118 101 -103 -104 -105 -106 -107 -108 112 109 -111 111 -113 -114 -115 -116 -117 -118 -119 -120 -121 -122 124 -124 -125 149 -127 137 -129 129 135 -132 -133 -134 -135 -136 -137 -138 147 -140 -141 -142 -143 -144 -145 -146 146 -148 -149 -150 -151 -152
leaf_value=-0.76515718897472229 -0.72869157549011887 -0.65693057948089162 -0.76008781279087057 -0.72646389193611349 -0.77638381692231606 -0.65278516614080861 -0.78502992162392071 -0.75811633298549563 -0.78214901520990776 -0.7531067322214452 -0.70688865080067287 -0.66243759565810978 -0.65478899964224235 -0.77423628448143345 -0.78771267416545676 -0.78285137233061775 -0.74793105963967343 -0.65363224756974558 -0.69499001793399118 -0.76881584334057618 -0.77966587635038676 -0.67979988144161663 -0.7755861986316448 -0.65106852397310722 -0.77524943578156791 -0.7508990260569719 -0.68723563965088752 -0.783148008244552 -0.67956010746739415 -0.70581375031286564 -0.76393442401561562 -0.74305293745481349 -0.71249917961561038 -0.74671965519519423 -0.65218789198561877 -0.65934681639699833 -0.73102268667239401 -0.69432146637407244 -0.78551736925320848 -0.76505446366503349 -0.78327445468136481 -0.75143402246434088 -0.77493184884340582 -0.74614615978417342 -0.65977347155654198 -0.65756901509874743 -0.74698315409833904 -0.78289863356006983 -0.69602566633543572 -0.7869433425413751 -0.69371876440086233 -0.78577696823077903 -0.77752976548492636 -0.70546128009416698 -0.71895972925368623 -0.73855906980174602 -0.7877393094520857 -0.78165750337161544 -0.78391003955191496 -0.65466011285461012 -0.70146806363976111 -0.71833267818190416 -0.65970939929194039 -0.77214818865465573 -0.70888703786912344 -0.78287210756696735 -0.78234212274096804 -0.73897394686299234 -0.66157529903371137 -0.66682892199970634 -0.68988846133309678 -0.76386980951472194 -0.67878762534381321 -0.74549206832069659 -0.72991643253375227 -0.65088444382585642 -0.65730361314547137 -0.74999175231984327 -0.73543837678513291 -0.77233685699101273 -0.69237568378645997 -0.77403795309645418 -0.77575955351384396 -0.67401081946918007 -0.68772453833146308 -0.78321904924886865 -0.73948783314771338 -0.77646325024846274 -0.78731600669936597 -0.67394195897363252 -0.68951871343545823 -0.72511013469900154 -0.76386656403224962 -0.69171979125037864 -0.78534996967923609 -0.76032624478230226 -0.76663927524034414 -0.7734947819854241 -0.67387913321590998 -0.71099683531152347 -0.76731212983984742 -0.77182390320138494 -0.78473686657042196 -0.74450747230978054 -0.77972199405253817 -0.78769973824615525 -0.69285677767488096 -0.72354508892208769 -0.65998825052398868 -0.66747093528203061 -0.71863172417107068 -0.68338232321031722 -0.78176104221831011 -0.75847144305622816 -0.77686545043065247 -0.67725524738784426 -0.73323684671553546 -0.76729869285662355 -0.7572693847896651 -0.77073421156193289 -0.78557610427609392 -0.77829651273986489 -0.75317540726434806 -0.67838864313828429 -0.77239552137945999 -0.72712720717894763 -0.76957083084618938 -0.77591779695095242 -0.78571114508473483 -0.75892513768123226 -0.72393281937293719 -0.78775281663839725 -0.69802506630510908 -0.71423367073698008 -0.74081192312690924 -0.77454231488779113 -0.67414628523239017 -0.76406981459213452 -0.7359794714008997 -0.77773255388928508 -0.74503683791289077 -0.76661812357446979 -0.711940224009041 -0.76923672755545269 -0.71402259282019309 -0.745463172962187 -0.77452406267598128 -0.66424719717195757 -0.746642388513021 -0.78108243028846713 -0.68954009456824572
leaf_weight=10365.575232237577 3045.1784935444593 26365.046879947186 19302.364862635732 3521.5130635052919 3195.439021602273 8261.9275790005922 8966.7106355726719 4863.8115399777889 15058.814721748233 14547.098811820149 11496.241829186678 15841.567150011659 15155.348521232605 13339.773042678833 11016.631457164884 13545.7260979563 6479.9859062731266 12302.363559022546 6209.3858162909746 59249.174101442099 7464.1051523685455 1722.97305098176 20738.794250831008 1626946.2647457123 4344.2332836538553 31095.851820141077 22384.234132423997 1302.9860537350178 13802.7850497365 20356.590522602201 40304.988313242793 3489.8447821289301 5102.7433494031429 4095.0366999655962 178756.31957444549 28176.253642335534 8881.9705379605293 24397.681735903025 8240.0873865932226 10318.618799209595 104502.49661509693 17676.798776432872 117931.81456403434 18170.169178456068 197837.88307645917 8572.4950820356607 9271.5998554676771 1584694.0059842169 3139.7465032637119 82071.304704844952 3440.2675352990627 3250.6946757435799 38735.9893001616 6338.6799943745136 8809.0245384126902 25978.912098795176 32760.511781424284 42327.608958750963 21859.196309402585 12938.350109398365 7649.0917665064335 9417.2736933976412 1680.3846916407347 7323.8910863697529 6462.2955542653799 454851.99101898074 3398.5528292655945 9962.4050062447786 3179.4955987930298 22873.891295909882 3673.0839802324772 3517.1450775116682 3297.8695167154074 10364.701415225863 6743.1602416783571 651115.1754424721 441222.61159455776 3338.4923221468925 24198.280973896384 253373.7864177227 1635.61219625175 17084.056032374501 7003.9322814047337 15878.040238440037 11156.845152676105 56993.955485746264 8204.706133082509 1623.6001193523407 1003.3385761082172 3684.222542449832 9706.0010104626417 4211.444944858551 56266.676604613662 8491.6861787289381 3795672.6512868702 656.29786656796932 43763.383679419756 12203.645974695683 5631.7129041105509 8125.4263554215431 2054.7255700826645 88912.745403856039 13925.963763833046 1526.4112803637981 248044.34152716398 8329.4137055575848 3472.1541858613491 6260.9287153631449 12250.383945629001 47987.277283325791 12583.010314077139 12698.981300994754 2002.7459116876125 112909.65964017808 1132.8509305864573 6129.8874828964472 8582.7599174678326 1771.6766721010208 2956.9440504461527 11281.771273642778 79937.081070408225 27917.885129481554 18916.885066226125 548.62572614848614 3125.5503876209259 15537.988379478455 8579.9208453595638 1041.3405219316483 11961.875110343099 6249.3535666018724 8085.2402086853981 480.92110715806484 18857.042704090476 28645.599771022797 5367.8831599652767 8629.4980830252171 1472.6844150424004 760.0387981235981 1968.6752252578735 226940.16133336723 13203.490136951208 4258.4012711942196 4906.8366097360849 10383.265786901116 16434.309937953949 11634.053886562586 14060.281119421124 777.29256263375282 6275.780079677701 252758.98485694826 1099.6538602113724
leaf_count=15972 3161 4305 29213 5948 5001 579 30940 8158 55184 49891 21793 4293 1284 24589 19630 24313 21113 1028 9327 163328 32186 744 86599 44840 12304 75190 27866 5767 7624 37885 152705 10805 4656 4890 9553 9014 23952 36090 14588 15157 181377 59644 192884 20698 41291 1661 11771 4996630 3388 319428 4238 14685 67331 4506 7731 76563 57989 185249 97301 1264 4693 21428 178 29753 3910 1516171 5952 29496 1029 11686 3902 7894 1844 32930 15204 21059 77393 4043 68808 644521 2315 56090 19827 10682 14070 219350 20589 6733 4226 2103 12800 3815 213053 11817 12427306 2408 109274 40066 1725 9004 8015 360142 60486 1916 716132 38138 4953 15334 2848 17706 12347 14166 8772 407332 4789 5580 19064 2274 5018 44864 239222 64248 64924 150 5951 39901 10647 1714 22266 10488 19906 758 30223 61311 16220 12195 483 1915 3615 531909 28341 16513 10129 16778 35050 14123 22869 283 20178 677932 965
internal_value=-0.743489 -0.774868 -0.778737 -0.656005 -0.779621 -0.683881 -0.782889 -0.667071 -0.70908 -0.766133 -0.756834 -0.706746 -0.726141 -0.713275 -0.72539 -0.729404 -0.737094 -0.65427 -0.744703 -0.783169 -0.762673 -0.659609 -0.755603 -0.653561 -0.783488 -0.772218 -0.711519 -0.733305 -0.700026 -0.730869 -0.745086 -0.732094 -0.766208 -0.653175 -0.656072 -0.676258 -0.738237 -0.705557 -0.755809 -0.747227 -0.773069 -0.722272 -0.767292 -0.771089 -0.66188 -0.687785 -0.73759 -0.784365 -0.776905 -0.778266 -0.7392 -0.727526 -0.776307 -0.680854 -0.747833 -0.753989 -0.775837 -0.768841 -0.763457 -0.675266 -0.731322 -0.742865 -0.738091 -0.759292 -0.748532 -0.779005 -0.75134 -0.73466 -0.676211 -0.683444 -0.708066 -0.754982 -0.725592 -0.766664 -0.652498 -0.654562 -0.653476 -0.724964 -0.743974 -0.770265 -0.759801 -0.75789 -0.746977 -0.689717 -0.703619 -0.779965 -0.77404 -0.760863 -0.718352 -0.69825 -0.703635 -0.709462 -0.75779 -0.711776 -0.784628 -0.661645 -0.757614 -0.750351 -0.695758 -0.743654 -0.775397 -0.768578 -0.768898 -0.69995 -0.777619 -0.762693 -0.721942 -0.751277 -0.673437 -0.67627 -0.687519 -0.700909 -0.737661 -0.761129 -0.711339 -0.698074 -0.720212 -0.721442 -0.723326 -0.757578 -0.778687 -0.777194 -0.768681 -0.776137 -0.778789 -0.717951 -0.781311 -0.715433 -0.779789 -0.770578 -0.742685 -0.703538 -0.709818 -0.717232 -0.717663 -0.759489 -0.742687 -0.761066 -0.700029 -0.781161 -0.735967 -0.742833 -0.728283 -0.76005 -0.723427 -0.770177 -0.761366 -0.713598 -0.735433 -0.780584 -0.750832
internal_weight=0 8.90327e+06 8.54011e+06 3.19336e+06 8.43312e+06 363160 6.78793e+06 258482 106996 1.64518e+06 650666 24808.3 80630.9 65572.1 104678 73726.6 82906.3 3.11963e+06 372407 6.76313e+06 103828 231858 190364 3.01765e+06 6.6593e+06 994518 49816.2 182043 18666.6 50416.8 88031.3 26624.3 402697 2.96704e+06 213191 34435 36352.1 30877.7 52028.6 41012 278258 94012 163638 136102 213978 16139.7 32771.9 5.57008e+06 189713 186573 7784.5 28888 591821 21771.8 30060.2 66283.9 67476.2 143086 100758 101980 27431.9 19782.8 6402.23 173500 27536.3 1.08922e+06 5602.45 44073.5 50611.6 38309.2 15435.3 106929 8783.69 23910.4 2.75306e+06 1.12612e+06 1.09234e+06 22453.3 31522.2 295768 21251.2 42394.2 25310.2 33778 17900 178789 96717.6 39723.6 6311.16 4687.56 13195.8 13181.7 78899 17373.7 5.38037e+06 28832.6 98145.3 54381.9 9843.16 42178.2 407426 100133 33412.4 3206.8 307294 141978 7567.19 11514.4 98458 85519.7 37532.4 25282 8263.67 133648 49938.5 13509.9 12255.8 8233.97 11082.4 19486.5 448735 368798 58201.5 39284.6 310596 21747.4 114620 7380.02 61073.9 28313.4 22632.3 2203.89 48805.6 29948.6 16864.1 16351.5 7722.04 10117.3 5266.54 681792 18306.2 11220 6961.56 13428.4 26396.7 53612.2 25694.3 1537.33 7911.39 256984 4225.2
internal_count=26877324 26423091 26195025 454233 26041554 228066 21696479 87755 153471 4345075 1616620 35233 149166 93982 140311 127202 127932 327031 1173419 21661246 217262 44211 668643 272752 21443984 2728455 69959 504776 15782 92698 278496 43544 1005340 236043 28429 18876 106746 57203 70729 51099 443201 226280 248979 213582 52795 11504 36511 18121645 697709 694321 16542 74560 1723115 12379 54813 229268 110516 565400 380151 54279 42093 37400 7095 630630 35397 3322339 7454 124190 36709 35681 23995 251905 13353 57243 183248 138408 98452 21354 98561 753435 47082 108914 52824 39956 29274 677779 358351 139001 13062 6329 23605 9583 282850 35769 17423936 11422 238552 129278 5540 89212 1274259 394799 125939 2094 879460 532069 9843 38791 48331 47067 29361 26513 24106 493931 102090 11800 22966 6184 14022 65453 1157715 918493 132405 67481 786088 49228 194222 6220 103421 45432 69797 1502 97301 67078 38013 23166 10971 12845 5459 2048080 32997 34657 18144 19939 64546 101240 36992 2198 22493 684848 6916
cat_boundaries=0 10 25 38 43 164 179 186 187 198 215 223 238 248 249 263 279 280 282 291 298 314 315 331 347 348 364 380 383 399 415 418 433 447 450 451 459 472 473 474 475 488 495 496 499 502 503 504 519 535 551 557 560 575 581 597 613 629 635 648 649 650 666 667 668 669 670 671 675 691 702 703 719 720 736 739 753 761 762 777 778
cat_threshold=537396257 1351887016 10223876 33556640 131072 0 33792 0 512 134217728 2097152 0 0 16384 0 0 2097152 524288 0 0 0 0 0 0 1073741824 0 0 0 16793600 0 0 0 0 0 536870912 0 33554432 4194304 135269120 16401 2 0 4194304 38 134217728 0 0 0 0 0 0 0 0 0 0 0 0 0 0 0 0 0 0 0 0 0 0 0 0 0 0 0 0 0 0 0 0 0 0 0 0 0 0 0 0 0 0 0 0 0 0 0 0 0 0 0 0 0 0 0 0 0 0 0 0 0 0 0 0 0 0 0 0 0 0 0 0 0 0 0 0 0 0 0 0 0 0 0 0 0 0 0 0 0 0 0 0 16777216 0 0 0 0 0 0 0 0 0 0 0 0 0 0 0 0 0 0 0 0 0 0 0 0 0 67108864 8192 0 0 570427904 33558528 262144 8978432 2109696 2097676 0 1048576 17301760 65536 1073741857 537659394 0 0 0 0 0 0 2097152 8 0 0 0 0 0 0 0 0 0 0 134217728 134242316 67108864 4194304 0 0 0 0 0 0 0 0 0 0 0 0 0 16777216 0 0 0 0 0 0 0 524288 1075838984 0 0 16384 64 0 2097152 533504 0 0 1024 0 262144 0 1074003970 536871936 0 0 0 0 0 0 0 0 134217728 8 0 0 0 0 0 0 0 0 0 0 8388608 134217728 0 1073741856 0 0 0 71434240 33554496 8192 8388608 1024 4 2147483648 17440 256 0 1140850688 2097152 2 8 69608336 71340032 0 1350565920 8650752 160 0 0 32768 0 512 84148224 67108864 1 0 0 0 65536 0 0 0 32 1 0 0 0 16777216 0 134218752 134217728 0 0 2097152 512 8 0 0 0 67239936 4096 8192 134217728 1048576 8 2147483648 134234144 16777216 0 1073741824 2097152 642 1073741824 0 0 88211456 708 4194304 1056768 0 20971520 671088640 134217728 0 302252036 67108864 0 1 8 8192 0 0 944799744 37884033 4194304 524288 2359296 12 0 320 256 4259844 3 788480 65536 524288 0 0 944766976 37752961 262144 1114112 2359296 6291456 2281701376 536887328 0 4259840 1073758209 536872960 65537 531791954 16809984 1610612736 0 0 0 274202624 0 4456448 1048576 2363392 4 2684354560 537936128 50331648 33619968 1149239554 557056 131714 0 0 0 2151809024 135168 0 142606336 1049856 4 536870912 16384 16777216 0 0 264192 640 1056 0 4 0 0 0 50332160 33559168 0 8192 1048576 16777224 0 64 524544 131072 537395232 538968064 8 0 0 16908320 0 0 0 0 0 0 0 524288 262144 16384 2097298 0 536870912 2 0 0 0 16384 0 0 2097152 524288 8 0 0 32 512 0 0 0 0 0 0 16777216 262144 4 548864 32914 1073741824 0 0 131072 0 4194304 0 0 0 0 134217728 0 262144 0 0 0 32 0 0 2097152 1728512 1056 8192 524288 1 262152 1048832 134217728 2383873 0 0 0 2147485696 131072 0 0 1280 0 0 0 0 0 536870912 262144 524288 0 0 68681728 37879941 270336 1114112 262400 4194316 0 537919744 134217728 4325380 256 32768 197122 1073750016 0 0 536904192 4672 0 8192 0 2097664 536870912 142606336 4352 33619968 67108867 536872960 1 8552456 0 0 16384 0 1 8192 32768 1073741824 8192 0 0 536871424 4096 262144 0 2097408 2097156 0 0 0 0 0 536872960 22912 0 0 0 0 1 0 0 0 2560 64 262144 135274496 4096 23069184 0 671089664 185073664 302120960 1073741856 539000832 131074 0 0 0 201327104 131588 8192 134807552 12288 6291460 134217728 545259520 167772416 33947648 1 2392080 66049 0 0 0 2147485696 4 0 143130624 0 0 0 0 134217728 0 0 16 1 0 0 0 16777728 0 262144 8 0 0 32 0 0 0 0 0 0 0 0 262144 2 3432448 1073741824 0 0 131072 0 262144 1056768 0 6292992 671088640 671088640 33554432 268566528 67125504 538968066 131075 524288 548864 134217728 2 286720 0 1073741824 0 32 0 0 0 2147483648 0 0 8388608 1048576 0 0 16384 0 0 0 0 512 0 0 0 67108864 4096 8192 134217728 1048576 8 0 134234112 1335296 0 0 0 83886080 4096 8192 0 1048576 0 536870912 16384 16777216 0 0 262144 512 262664 524288 0 0 570556928 33558661 8192 134742016 2101504 1544 134217728 1048832 0 33685508 524544 538970112 513 29421570 16814080 1610612736 0 0 0 0 64 0 8388608 1024 0 0 32 0 0 67108864 262156 67108864 16777216 0 0 8388609 0 256 2048 0 0 0 0 0 0 8912896 0 0 0 0 16777472 0 0 2048 2560
is_linear=0
shrinkage=1


Tree=1
num_leaves=152
num_cat=96
split_feature=3 58 3 58 3 1 3 3 1 3 3 62 62 62 62 2 76 58 3 3 2 76 68 10 4 3 3 5 3 3 3 5 63 5 3 53 3 63 2 2 3 60 3 58 3 2 71 76 58 2 3 62 3 8 2 3 76 68 3 4 4 5 68 6 4 62 76 69 3 2 6 76 12 6 50 2 3 6 62 6 5 6 2 6 1 2 2 63 2 50 76 53 6 2 3 6 3 60 2 6 76 3 6 3 53 2 6 53 8 2 5 71 76 3 6 6 3 6 71 53 6 6 6 5 58 2 53 58 5 3 53 11 68 2 6 6 6 71 71 3 71 5 4 8 6 68 1 6 5 2 2
split_gain=2.52493e+07 4.82713e+06 1.85024e+06 1.33858e+06 1.02192e+06 930568 567490 555734 353168 270654 226593 208694 163622 103382 75431.6 75243.8 87295.3 74722.8 73495.5 67447 67311.3 73842 53558.4 45471.1 41027.4 40755.8 40406.1 39684.3 38027.5 37556.7 35627.9 38711.1 35568.2 32782 31757.8 31725.3 31531 31517.5 30033.2 26478 25251.4 24974.8 24599.2 24279.2 24146.4 23535.8 27064.9 23478 23304.6 22508.7 22481.3 21806.5 39571.7 39009.3 24343.3 18852.3 18474.7 18332.6 18066 17881.8 17640.7 17515.1 17129.5 21443.5 15909.4 18112.5 15653 19383.1 15042.5 14718.6 14556.3 14079.1 16292.6 14136.9 13880 13601.1 13324.9 12971.3 14793 12873 12579.7 12272.2 11845.8 11807.3 11801.6 11767.6 11686.3 11638.7 16256.1 11380.3 13130.9 17655.6 18702.9 11295.3 10919.2 15076.6 10874.4 14641.9 11421.9 10672 10238.6 10188.5 10721.8 10838.8 10130 10063.2 9857.2 9747.45 19628 10594.5 9586.2 9319.04 9303.04 9237.52 9062.26 8989.25 8866.77 8610.18 8423.45 8214.05 8156.51 8140.49 8028.79 7974.72 7741.68 7695.91 7643.27 7636.37 8585.09 7427.05 7380.56 7246.21 7240.95 7209.98 7132.47 7131.53 7126.43 7098.67 7040.71 7019.78 6991.16 6976.82 6952.5 7565.69 9423.81 6864.98 6830.16 6720.3 6600.52 6548.21 6499.55
threshold=0 1.5000000000000002 1 27.500000000000004 2 3 4 5 6 7 8 6.5000000000000009 6.5000000000000009 18.500000000000004 6.5000000000000009 9 1.5000000000000002 6.5000000000000009 10 11 12 1.5000000000000002 180.50000000000003 7.5000000000000009 13 14 15 16 17 18 19 20 8.5000000000000018 21 22 501.50000000000006 23 111.50000000000001 24 25 26 15.500000000000002 27 9.5000000000000018 28 29 1.5000000000000002 1.5000000000000002 4.5000000000000009 30 31 12.500000000000002 32 31.500000000000004 33 34 1.5000000000000002 1.5000000000000002 35 36 37 38 100.50000000000001 39 40 23.500000000000004 1.5000000000000002 3.5000000000000004 41 42 43 4.5000000000000009 2202.5000000000005 44 315.50000000000006 45 46 47 52.500000000000007 48 49 50 51 52 53 54 55 8.5000000000000018 56 2126.5000000000005 9.5000000000000018 5361.5000000000009 57 58 59 60 61 7.5000000000000009 62 63 2.5000000000000004 64 65 66 201.50000000000003 67 68 1.5000000000000002 5.5000000000000009 69 70 2.5000000000000004 1.5000000000000002 71 72 73 74 75 1.5000000000000002 1.5000000000000002 76 77 78 79 918.50000000000011 80 15.500000000000002 2.5000000000000004 81 82 192.50000000000003 35729.500000000007 53.500000000000007 83 84 85 86 1.5000000000000002 2.5000000000000004 87 1.5000000000000002 88 89 100.50000000000001 90 64.500000000000014 91 92 93 94 95
decision_type=9 2 9 2 9 9 9 9 9 9 9 2 2 2 2 9 2 2 9 9 9 2 2 8 1 9 9 9 9 9 9 9 2 9 9 2 9 2 9 9 9 2 9 2 9 9 2 2 2 9 9 2 9 8 9 9 2 2 9 1 1 9 2 1 1 2 2 2 9 9 1 2 8 1 2 9 9 1 2 1 9 1 9 1 9 9 9 2 9 2 2 2 1 9 9 1 9 2 9 1 2 9 1 9 2 9 1 2 10 9 9 2 2 9 1 1 9 1 2 2 1 1 1 9 2 9 2 2 9 9 2 10 2 9 1 1 1 2 2 9 2 9 1 10 1 2 9 1 9 9 9
left_child=3 2 14 8 11 9 23 12 -1 15 32 24 60 25 33 16 27 29 35 -15 21 22 30 36 83 -11 -24 62 99 69 -21 40 59 106 57 38 123 49 -19 47 -32 96 133 130 110 46 56 61 74 -8 -34 -31 -53 54 100 -23 64 -12 80 79 117 122 77 -64 70 -66 67 114 111 -10 -13 72 73 -18 -42 -44 -35 78 135 -9 -16 -45 -26 -4 -25 112 -46 -71 -89 127 91 92 116 134 95 -73 -20 98 -98 105 -54 -33 103 -103 140 -27 -2 -77 109 -109 120 146 -82 147 125 -59 -91 -6 -69 -55 -30 -93 -14 -5 -38 -17 -88 128 129 -57 -28 -105 139 -36 -52 -3 -106 -63 -134 -50 -75 -101 143 144 -110 -118 -29 -67 -79 -78 -121
right_child=1 5 4 6 7 -7 37 10 17 13 34 45 39 19 58 66 71 18 41 20 -22 55 26 84 82 28 43 68 44 51 31 101 50 76 42 -37 124 -39 -40 -41 48 -43 75 81 86 -47 -48 -49 132 -51 93 52 53 119 -56 89 -58 115 -60 -61 -62 137 63 -65 65 113 -68 118 -70 87 -72 94 -74 104 -76 107 149 148 -80 -81 85 -83 -84 -85 -86 -87 126 88 -90 90 -92 121 -94 -95 -96 -97 97 -99 -100 141 -102 102 -104 131 136 -107 -108 108 142 -111 -112 -113 -114 -115 -116 -117 145 -119 -120 150 -122 -123 -124 -125 -126 -127 -128 -129 -130 -131 -132 -133 138 -135 -136 -137 -138 -139 -140 -141 -142 -143 -144 -145 -146 -147 -148 -149 -150 -151 -152
leaf_value=-0.043743876687863961 0.02350273076730405 -0.037831862533071636 0.035993128461747868 -0.044738985840655922 0.058974229186082402 0.083139624048574071 0.082098240519377072 0.045042712358996748 -0.017878924057995974 -0.036125795137537657 0.069888857925312048 0.017137153405724866 0.019703500941689659 -0.0413890390343142 -0.034978931154738081 -0.0064527545652847719 -0.023017040680412264 0.065986531301917214 0.080247671855877833 -0.035357619230737658 -0.040255213415741252 -0.039255229319415275 -0.03462919641361497 -0.0061975853236352057 0.082603034088528843 0.024443696636555622 0.0016828643698951489 0.035765907427461351 0.02467330227208556 0.086338395474472127 -0.022771350977212747 -0.034847710227784691 -0.029569804804637133 0.002431467140474524 0.045243757366106821 0.072465647916631376 -0.030070871258945992 0.057750404683749985 -0.029654245614494857 -0.033356510574557359 0.0071176227269058121 -0.026225539913599959 -0.043922923202452092 0.026808531758277753 -0.038059041549601255 -0.033845496950150676 -0.036191063222659595 -0.031230051370380891 0.013135201731028487 -0.040396406592492384 -0.010502536627597406 0.083656076994688092 0.057876451681553649 0.080866646836332365 -0.0085855500859285706 -0.035918890784371132 -0.027226493453328192 0.031331571162804696 -0.039788359371886593 0.070700675950280401 0.080853166556766207 0.03280568884363734 0.037208599319372995 -0.030269259981432643 0.048617621173364198 -0.012538970553296986 -0.035867839225533722 0.015327849127650209 0.0038075278218313233 0.083780666102273804 -0.036845877502705904 0.020249031484593664 -0.033344299779430653 0.005679329828088879 0.054459359192090953 0.085290390184762671 0.072248539439299153 -0.043559538156888504 -0.018514342249626611 -0.04401087874930764 0.0034073279370819493 -0.018679516536318472 0.02139164304649218 -0.043948735593786675 0.073092643968191914 -0.030971598477259617 0.070753832689283619 0.064663347524470061 0.020543739934870676 -0.026031300340110843 -0.034087245448650973 0.055851557079399747 -0.031456262118378514 -0.018446868982929659 -0.030187349581110849 -0.029433294107091095 0.0052233688199646595 -0.023820408282631333 0.068668340083786597 0.0049813592527753851 -0.0041915589174964362 -0.023221706608577242 -0.030769724255150926 -0.0021821619681288368 0.027104189550395463 -0.038116357697030999 -0.038950683620299201 0.052600121466327789 0.057059353789162756 -0.021513102104155933 0.027149288989529195 0.0014799246897494889 -0.032473428887199021 -0.037817520292961475 -0.032960742236128257 -0.041746374128733103 -0.034216208528107389 -0.044044238790528212 -0.016653230256149971 0.071246528592405198 -0.043794635312335323 -0.033758855377405028 -0.02139979976436374 0.070714135772043343 0.073419415537281235 -0.031324875019565289 -0.011308458706849262 -0.035519869919093693 -0.029251795977819919 0.028776406981013674 0.069356456558604507 0.057140960279966228 0.021520781105241589 -0.030380104171002939 0.036008545293097355 0.048615356753468758 -0.0040502858032162078 -0.013197081839575582 -0.012802608771764529 -0.01844478112371788 -0.01670683215448085 -0.038592507361643116 0.082119069752074142 0.07206306023678502 -0.043755354884355974 0.0034752216671785239 -0.034387282069135251 0.02163591234951931 -0.0076661322914511471 0.016080385566385861 0.042710536997264653
leaf_weight=20197.086286261678 3099.8613492846489 1014.9476537704468 3054.0287587344646 580.95129843056202 1327.1947093009949 60461.969768166542 1357.1247184127569 3609.7619833946228 2015.3331921249628 25941.003334209323 5891.0515770316124 7158.9284068793058 5913.4174696356058 2405715.8556205481 63148.132261961699 27173.967287823558 42918.328580901027 3769.0742492377758 65121.345303371549 266323.61281727254 1511274.1697589606 734627.92623893917 15076.454525947571 1736.4010471105576 24358.063399344683 8559.3471895307302 1698.0086537450552 49113.531793490052 2351.0475502759218 1428058.7026617378 96030.513353854418 135824.67481666803 12611.216495916247 5013.6076636612415 9059.5002757161856 5759.9534738510847 8240.4581331461668 3102.1817473471165 13544.822137147188 33855.106301829219 15195.972092479467 2353.2906435281038 762.69235390424728 11478.839551106095 1065.8335618674755 77624.51570391655 30711.555436179042 16628.642663672566 7208.0090241730213 123094.90994131565 3535.8199754059315 883544.98612239957 40885.258588016033 118273.91828282177 6369.8805364072323 2338.0903901308775 20917.421701461077 3082.5077417045832 213377.22587911785 14227.313089996576 23510.005549773574 22633.211311638355 12273.296397149563 6463.6881992071867 11301.448011398315 7583.7467439472675 166322.12759529054 14623.71587896347 33738.471621438861 20042.220822691917 12058.710319235921 9878.4362945407629 30973.131301373243 19056.458205759525 8802.2222998589277 401825.70212838054 9335.5293581038713 18961.626640066504 16790.67299695313 2440.0599292069674 27998.815358236432 9961.3673983514309 3250.5155443549156 3626.9120113551617 72981.653045639396 27303.976513847709 13813.182253971696 42481.782293200493 9170.3703677356243 21294.94402064383 207527.13432854414 3632.3890002369881 117608.20888784528 5820.0123251974583 125797.08125756681 12371.242104262114 2757.6691999435425 1774.364967674017 36835.347027912736 4265.1361928582191 2540.5485807359219 37972.047574281693 74051.167415335774 19130.645380973816 14974.250321313739 3160.7745292633772 8492.5700178742409 9401.0543092787266 2756.7783984988928 2126.8435703516006 8041.9698657095432 9419.6048969477415 8471.0866840034723 4118.7176364809275 93480.416296750307 2959.9989257603884 5041.2874042838812 1598.5411859154701 15030.620462492108 58176.057299152017 4656.2628218978643 1212.2540678083897 15392.919627070427 6861.6876562684774 706.30692309141159 19053.43523336947 1103.0626410543919 922880.11313833296 22690.227988526225 4985.9828216433525 9947.1644158661366 2051.8884593099356 11647.51927703619 1292.7425239980221 18465.548847988248 5417.0783246308565 11822.974176838994 3483.573140501976 9993.7238407582045 52057.358043789864 36803.975238546729 14767.518309026957 136710.03630161285 20741.583825290203 1187.7491569370031 31673.574578627944 1276.5758317857981 16292.9223741889 6114.3379721790552 2361.5899850726128 8332.0900687873363
leaf_count=59015 3951 1799 2223 2586 680 5892 138 2636 5124 72952 2347 8980 8978 8276780 194185 58902 113080 1628 9979 830694 4690228 2370034 49352 3434 5088 11340 5195 92120 2238 49818 377623 290499 49742 15214 10120 1868 23886 2055 33724 116089 43846 7110 2351 18097 2060 275116 126776 60420 19261 212508 9712 99977 32396 23207 15849 10247 69368 4689 804737 8941 6232 44733 10626 10317 16066 26831 518329 37425 100985 1907 23479 13057 102880 40662 10542 29720 5344 18484 29275 4551 84387 26820 7472 6707 23796 114324 4468 25154 15282 47812 464432 1881 242068 17092 388220 28405 4982 5047 17378 12588 6241 75920 142794 28286 20325 7944 15267 8838 1787 5712 17590 28695 36070 18324 244291 10371 8093 2971 55221 24426 8851 2482 37881 2651 342 52353 2180 2982317 78741 10556 5437 1078 27691 3795 28475 2875 22597 12404 35704 196540 110052 29106 29229 6127 2495 47107 5479 38999 20838 5897 9235
internal_value=0 -0.024872 0.0269505 0.0756056 0.0480382 -0.0340849 0.00414462 0.0641506 0.0812428 -0.0350096 0.0751345 -0.00876538 0.0059794 -0.036935 -0.0305408 -0.0185048 -0.0106928 0.08216 0.0601295 -0.037354 -0.0351331 -0.0324263 -0.0245854 0.0613261 0.0592913 -0.00457655 0.00606423 0.00720549 0.00867432 0.0832696 -0.0265902 -0.0216206 0.019901 0.0165162 0.0807433 0.0114716 0.0160803 -0.0367 -0.00881315 -0.0119023 -0.0116564 0.0704371 0.0817315 0.0246106 0.0320997 -0.0211941 -0.0122738 -0.000557206 -0.00148044 -0.0390573 0.00364273 0.0838814 0.0807442 0.0697698 0.0462062 -0.0353899 -0.00302791 0.0322036 -0.0344555 0.0523296 0.072208 0.0101979 -0.0104117 0.0139345 0.00562246 0.0165617 -0.0293298 -0.0229109 0.0198288 0.0621164 -0.0167464 -0.0201292 -0.013857 -0.00905049 0.0244819 0.0825574 0.0433924 -0.0198587 -0.00369327 0.00912665 -0.0254849 0.00567805 0.0754339 -0.00741717 0.0712589 -0.01608 0.0577734 0.0643672 0.0568468 -0.0332717 -0.0289407 -0.0230223 -0.0245809 0.0187016 -0.0267616 -0.00737609 0.0725799 0.0604751 0.064268 -0.0149661 0.0542328 -0.0290621 -0.0231605 -0.0136316 -0.00179563 0.0075539 -0.0222445 0.082726 0.076772 0.0389535 0.00481449 0.0288642 -0.00492556 0.00362106 -0.0275868 -0.00448383 -0.0106346 0.00273882 -0.000882106 0.0761235 -0.0208203 0.0334743 -0.00998799 0.0616543 -0.0218763 -0.0167088 0.064642 -0.0350355 -0.0201436 0.00810268 0.0594888 0.00356261 -0.00918149 0.03578 0.0285324 0.0349911 0.0133674 0.0266594 0.00567056 -0.0146048 -0.00906992 -0.0288303 0.0794732 0.0648204 0.0267364 -0.00169969 0.0339889 0.0107805 -0.0348141 0.0609319 0.0676887
internal_weight=0 9.09951e+06 1.37351e+06 2.99067e+06 1.00491e+06 7.726e+06 218662 782851 2.772e+06 7.66554e+06 658508 222057 124343 6.86468e+06 368602 800864 465180 2.75181e+06 131916 6.77695e+06 4.37124e+06 2.85996e+06 784451 91107.5 34289.5 87725.1 48161.8 160584 61784.1 2.61989e+06 736289 469966 60709.7 28303.2 597798 23073.8 16389.4 127554 17313.9 97906.9 200935 108842 585865 33085.4 31031.4 187768 110143 64051.8 104905 124452 40432.6 2.54618e+06 1.11812e+06 234578 49795.7 2.07551e+06 79431.9 11933.6 340299 20277.1 26435.7 47423.1 67035.6 18737 58514.5 39296.8 335684 169362 93548.2 73709.7 19217.6 304596 156549 125576 23998.2 575512 16710.7 48298.7 23222.7 6049.82 126922 21440.2 27608.6 6680.94 74718.1 63773.9 15982.1 71694.4 51652.2 1.34088e+06 387990 180463 175618 27821.4 148047 22249.7 106489 41367.4 39593 30752.8 43425.8 269030 133206 59154.6 82657.7 11720.1 11592.4 574750 172924 11527.9 15049.3 59809.7 36469.9 27995.4 139708 6042.51 58009.8 2925.74 29654.3 184782 7007.31 4844.64 21306.3 7442.64 8946.77 46227.4 14916.2 952894 30014.3 7324.07 11645.2 21182.5 80906.6 10352.2 22001.4 6432.03 26797.2 26116.8 21641.2 59265.4 55860.4 19032.7 161396 24686.1 3944.53 36714.9 50390.1 23876.7 25076 11697.1 66508.1
internal_count=26877324 26156581 2433923 720743 1154547 23722658 271396 529118 449347 23716766 238730 625429 290388 21589474 1279376 2127292 1160771 390332 81716 21418157 13141377 8451149 2185379 56695 21490 171317 104901 321493 98365 308616 2080478 1249784 121149 45673 117581 37220 29465 214701 35352 280505 711207 44496 100174 55549 37387 603939 328823 164416 333584 212646 105021 261149 211331 111354 54486 6265770 202047 17407 1233703 16128 9883 103996 94214 20943 132679 100220 966521 448192 227279 47467 32459 839278 409596 306716 54388 86259 26455 73271 33949 7187 428966 44917 12560 8930 27230 234781 8708 42343 40436 3895736 813875 349443 345080 55279 429682 41462 37386 27407 22360 60978 38637 538577 248078 105284 193636 19284 19218 83908 54188 14550 28679 126294 120457 84154 355546 15060 103012 3651 92646 56868 11089 4363 46859 5237 24228 111255 6648 3081861 99544 20803 10632 29364 279196 13915 38187 4674 42922 57137 63395 215801 150714 41694 39638 10409 4282 55200 97599 65830 39322 11241 33661
cat_boundaries=0 11 27 43 164 175 191 312 328 343 348 359 375 380 381 397 413 414 429 440 456 457 458 473 484 503 522 538 546 562 567 569 583 590 609 625 641 642 643 644 646 647 662 664 666 668 670 686 688 690 691 693 695 697 818 822 850 878 880 881 897 899 906 908 910 925 927 943 944 946 948 949 965 967 969 985 987 989 991 993 994 997 998 1014 1017 1019 1021 1023 1038 1039 1040 1042 1043 1045 1046 1048 1050
cat_threshold=2097152 0 0 131104 0 0 2097152 524288 0 0 142607360 139264 0 0 907020800 33554561 262144 0 2363392 4194312 2147483648 1048672 4096 4259840 3 537397248 65538 0 0 0 134742016 4330052 0 135856128 256 2098692 134217728 536871168 17301760 131076 1149239296 2129920 129 38 134217728 0 0 0 0 0 0 0 0 0 0 0 0 0 0 0 0 0 0 0 0 0 0 0 0 0 0 0 0 0 0 0 0 0 0 0 0 0 0 0 0 0 0 0 0 0 0 0 0 0 0 0 0 0 0 0 0 0 0 0 0 0 0 0 0 0 0 0 0 0 0 0 0 0 0 0 0 0 0 0 0 0 0 0 0 0 0 0 0 0 0 0 0 16777216 0 0 0 0 0 0 0 0 0 0 0 0 0 0 0 0 0 0 0 0 0 0 0 0 0 67108864 2097152 0 0 0 0 0 2097152 0 0 0 142606336 524288 0 0 16809984 0 8192 8396800 8192 0 0 16384 167772160 301989888 524288 1073741840 131584 0 0 0 0 0 0 0 0 0 0 0 0 0 0 0 0 0 0 0 0 0 0 0 0 0 0 0 0 0 0 0 0 0 0 0 0 0 0 0 0 0 0 0 0 0 0 0 0 0 0 0 0 0 0 0 0 0 0 0 0 0 0 0 0 0 0 0 0 0 0 0 0 0 0 0 0 0 0 0 0 0 0 0 0 0 0 0 0 0 0 0 0 0 0 16777216 0 0 0 0 0 0 0 0 0 0 0 0 0 0 0 0 0 0 0 0 0 0 0 0 0 67108864 0 0 0 16384 131072 0 8388608 1049600 0 2684354560 16416 33554432 0 0 1074003968 128 0 0 0 2147500032 0 4194304 0 1024 16777216 536870912 0 0 0 536887296 262144 4808704 0 131072 0 16 0 0 0 32 0 0 0 524288 0 0 1024 1074405384 0 0 810024960 4194433 4456448 1056768 2097152 16777728 0 1048896 528384 272629760 1073742114 536870912 131072 38756352 0 0 0 32 8 8200 0 0 826278400 33558529 262144 1572864 2097152 6291968 134217728 1048896 0 37945344 1073741824 539527168 2 0 0 0 2299559936 33554496 0 589824 4096 4195332 134217728 536870912 256 65540 537411584 2064 514 1597440 0 0 0 2382923776 512 4202496 8192 274432 12 0 0 528384 0 536887331 2 0 0 0 0 0 0 0 0 0 0 8389632 0 0 0 135299072 33554948 0 65536 274432 2098176 134217728 536870912 134217728 34013188 540673 559104 65536 12582927 155648 0 0 0 4194304 0 0 0 0 0 0 0 0 262144 256 2 0 0 0 0 0 0 2097152 0 0 0 8388608 559939585 134217792 0 0 0 0 0 0 0 0 0 0 0 0 0 0 0 0 2147483648 273162330 256 655360 0 0 0 0 0 0 0 0 0 0 0 0 0 0 0 2147483648 0 0 0 100665344 0 0 134742016 0 4194304 0 0 16777472 0 75497472 16 513 1073741824 0 0 0 0 0 0 1048576 1073741824 0 0 0 196 0 0 256 16777216 0 0 256 0 67109120 16 513 4726850 4352 268566528 4194369 16 18874369 64 0 0 0 0 0 4194304 0 0 16777216 0 0 0 0 16384 2097152 0 0 0 0 0 2097152 728638609 134479996 1048576 131072 0 0 0 0 0 0 0 0 0 0 0 0 0 0 2147483648 0 0 0 1081344 33558532 0 0 270336 6292480 134217728 536870912 134217984 34013188 540672 559122 1 139264 0 0 100665856 0 0 0 4096 8 2147483648 32 0 4194304 0 0 2 8 8 1138688 2114139775 69789001 8 0 0 0 16384 131072 0 0 1048576 0 536870912 0 33554432 0 0 1073741824 3229648948 75679793 2560628785 16912391 3826254104 153808435 0 33562624 8192 0 0 536871424 0 262144 0 2097152 0 0 64 4096 0 0 536872960 65536 557027247 6140165 4634198 102123650 90112 1114413257 71411806 273219650 260 1107575298 203751947 4 0 0 0 0 0 0 0 0 0 0 0 0 0 0 0 0 0 0 0 0 0 0 0 0 0 0 0 0 0 0 0 0 0 0 0 0 0 0 0 0 0 0 0 0 0 0 0 0 0 0 0 0 0 0 0 0 0 0 0 0 0 0 0 0 0 0 0 0 0 0 0 0 0 0 0 0 0 0 0 0 0 0 0 0 0 0 0 0 0 0 0 0 0 16777216 0 0 0 0 0 0 0 0 0 0 0 0 0 0 0 0 0 0 0 0 0 0 0 0 0 67108864 2152210432 131072 160 16 9753600 2236936 0 0 0 0 0 0 0 0 0 0 0 0 0 0 0 0 0 0 0 0 0 0 0 0 0 4 594042881 134480704 135168 8193 0 0 0 0 0 0 0 0 0 0 0 0 0 0 2147483648 0 0 0 0 0 0 0 0 4 1686852865 35726340 3259654400 0 0 0 16384 0 0 0 1048576 0 2147483648 32 0 0 0 1073741824 128 2563941898 5529604 2097152 0 0 0 0 0 2097152 2492831246 69338888 1082619792 135270800 0 0 0 117441024 4096 8192 134217728 256 8 0 0 256 0 603979776 2097152 322782541 2120630 0 0 0 2048 64 0 524288 0 4194304 0 0 0 0 8388608 0 3 273443392 143656601 6291488 1498036225 4096 1073156 0 0 0 0 135232 0 134742016 256 1028 0 0 17301504 0 1149239296 2097152 128 497488 163578577 2751996352 196223545 0 0 0 134218240 64 0 65536 256 12 0 0 16777216 0 67108865 2097152 66048 1074813072 5275712 1062914 109053189 171069446 156974643 1081368 135274709 196608 135661896 67109673 32 1048591 0 0 0 33554432 512 0 65536 4096 12 0 0 16777216 0 536870913 2097152 66048 172974402 0 8388608 6374408 205840532 539036456 12292 2592291 12587212 0 0 0 16777216 0 0 0 256 0 0 0 0 0 536870912 2 6160393 8 1376000253 171511817 2 2354598190 48318510 16384 373854810 2097932 1232920843 536971568
is_linear=0
shrinkage=0.03


Tree=2
num_leaves=152
num_cat=121
split_feature=0 65 3 0 3 66 2 2 76 3 5 3 5 3 0 3 0 3 65 3 3 5 0 62 5 68 0 2 2 5 76 2 3 6 3 70 3 76 3 76 6 6 3 2 76 3 58 3 0 0 0 6 5 62 0 0 2 2 72 6 2 5 2 0 63 6 68 6 65 70 3 6 3 72 2 6 5 3 63 6 3 0 5 2 67 6 0 2 6 63 3 6 3 5 6 2 0 2 5 6 6 0 6 3 6 0 6 5 2 3 2 6 5 53 3 2 6 65 6 53 6 6 6 74 10 6 6 61 3 6 6 6 3 6 3 6 6 65 6 0 5 8 6 5 2 3 5 3 6 2 6
split_gain=3.16556e+07 3.1111e+06 518081 404226 373021 300892 161090 135547 140488 87183 77722.4 73340.5 69138.3 62963 52194 58218.9 49380.3 49338.6 47392.3 39060.5 38944.3 35302.1 28078.8 25680.6 25406.4 25400.1 24370.6 23873.7 23468.2 22359.2 29957 21024.4 19935.7 19568.7 19420.3 18591.6 17541.9 17258.1 16665 16264.3 14454.6 14055 15191.4 13967.8 16222 14222.2 17551.9 23312.2 21031.4 29156.5 15817.2 13948.3 13852.8 13625.3 63635.9 16752 13341.4 12666.2 12604 12275.6 12025 11952.3 11525.2 11161.2 11140.8 16731.2 10302 14631.2 10188.7 13168.1 10178.6 17992.1 9435.95 9151.27 9133.25 9121.38 10719.7 8795.39 9234.44 8790.05 8654.53 8637.96 8507.74 8429.73 8428.69 9717.09 8029.75 7949.3 7715.61 7653.6 7649.63 7645.6 7627.03 7599.26 9024.19 7533.16 7432.04 7345.5 7203.07 14641.9 6917.43 6786.58 6706.53 6575.34 6536.82 6466.17 7817.73 7738.08 6398.25 6394.55 6329.74 6308.86 6201.49 6119.94 6044.87 6026.81 6008.14 5920.64 5898.78 5889.22 5636.85 5607.03 5494.12 5440.62 5433.14 6776.95 5210.57 5167.27 6774.57 5120.47 5066.12 5036.76 4986.44 4979.13 4959.05 4956.48 4942.6 4931.63 4916.83 4798.67 4977 4794.39 10585.3 4793.11 4773.05 4720.04 4712.91 4673.75 4666.88 4622.4 4764.4
threshold=0 5.5000000000000009 1 2 3 2.5000000000000004 4 5 1.5000000000000002 6 7 8 9 10 11 12 13 14 11.500000000000002 15 16 17 18 41.500000000000007 19 31.500000000000004 20 21 22 23 1.5000000000000002 24 25 26 27 24.500000000000004 28 2.5000000000000004 29 1.5000000000000002 30 31 32 33 1.5000000000000002 34 1.0000000180025095e-35 35 36 37 38 39 40 50.500000000000007 41 42 43 44 1.5000000000000002 45 46 47 48 49 20.500000000000004 50 70.500000000000014 51 11.500000000000002 28.500000000000004 52 53 54 1.5000000000000002 55 56 57 58 40.500000000000007 59 60 61 62 63 7.5000000000000009 64 65 66 67 14.500000000000002 68 69 70 71 72 73 74 75 76 77 78 79 80 81 82 83 84 85 86 87 88 89 90 670.50000000000011 91 92 93 11.500000000000002 94 463.50000000000006 95 96 97 2.5000000000000004 4332.5000000000009 98 99 9.5000000000000018 100 101 102 103 104 105 106 107 108 362.50000000000006 109 110 111 19.500000000000004 112 113 114 115 116 117 118 119 120
decision_type=9 2 9 9 9 2 9 9 2 9 9 9 9 9 9 9 9 9 2 9 9 9 9 2 9 2 9 9 9 9 2 9 9 1 9 2 9 2 9 2 1 1 9 9 2 9 2 9 9 9 9 1 9 2 9 9 9 9 2 1 9 9 9 9 2 1 2 1 2 2 9 1 9 2 9 1 9 9 2 1 9 9 9 9 2 1 9 9 1 2 9 1 9 9 1 9 9 9 9 1 1 9 1 9 1 9 1 9 9 9 9 1 9 2 9 9 1 2 1 2 1 1 1 2 8 1 1 2 9 1 1 1 9 1 9 1 1 2 1 9 9 10 1 9 9 9 9 9 1 9 1
left_child=4 5 11 7 16 9 17 8 10 24 36 -3 13 59 -13 -16 82 -5 21 27 23 70 28 -12 33 61 68 -6 39 84 31 77 40 62 149 52 51 93 -23 105 90 42 -15 44 45 -24 47 -47 -49 -50 -51 -4 116 -28 57 -56 73 123 -22 -7 81 -18 80 -26 65 -53 79 -68 -21 72 71 74 -70 132 -8 -37 -77 -31 101 103 -2 -44 -1 -36 -9 -86 -11 -74 139 112 124 113 -87 104 127 138 -61 135 99 -27 -60 -79 -39 -66 -34 106 -20 -108 130 -85 137 147 129 -38 -46 -65 -17 126 -99 -119 -103 -80 -41 -55 125 -10 -104 -95 -129 -48 -84 -111 148 -126 -83 -63 -114 -94 -54 140 -25 -43 -143 -96 -57 -136 -29 -75 -40 150 -14
right_child=1 2 3 6 19 12 18 29 32 86 20 14 34 41 15 35 25 -19 22 26 58 38 43 88 63 98 53 146 -30 30 -32 -33 37 -35 83 75 91 102 56 122 -42 141 60 -45 114 46 89 48 49 50 -52 64 95 54 55 144 -58 -59 100 96 -62 97 -64 115 66 -67 67 -69 69 -71 -72 -73 87 111 -76 76 -78 78 121 -81 -82 134 108 109 85 92 -88 -89 -90 -91 -92 -93 110 94 143 -97 -98 118 -100 -101 -102 120 117 -105 -106 -107 107 -109 -110 131 -112 -113 136 -115 -116 -117 -118 119 -120 -121 -122 -123 -124 -125 133 -127 -128 128 -130 -131 -132 -133 -134 -135 145 -137 -138 -139 -140 -141 -142 142 -144 -145 -146 -147 -148 -149 -150 -151 -152
leaf_value=-0.038344206114922556 0.06351681007341721 0.077134537177291115 -0.036988338649054049 -0.038267006158681595 0.065529161016070092 -0.0089691187772432124 0.049697902667595301 -0.039692486361505595 -0.025212124937385713 0.014794797800091257 0.040544499142435367 -0.038074091321189933 -0.043757766827362543 -0.043390658800837319 0.079470778636640677 0.02149672628260876 -0.032939375549701923 0.074407421331375442 -0.010679128435783865 0.080159640885684572 0.034248897550035962 -0.035119650987314788 -0.040218813854066358 0.016792280211188775 -0.030971692549389928 -0.020877230720473251 0.082003308493383734 -0.015727665234046322 -0.039447790387863849 -0.019319788470837734 -0.035056836112607605 -0.030655156922109825 -0.020904976308892355 -0.035034070795014478 0.057961706792585721 0.051983250825743919 -0.018108529684423214 -0.034910076610581438 0.044760664349686556 -0.029792102338734458 -0.022954693740358221 -0.034549625257124794 -0.043440425257546891 -0.041811177736286377 -0.037381249682459351 -0.038564110249658896 0.038222329275507429 -0.021482347778707327 -0.032701182736885527 -0.044439481347509198 0.071124780588640149 0.04078642426074755 -0.044075118634874844 0.049792677530097439 0.082600270276129054 0.075977232672332765 -0.024230575978077446 -0.017788366297161098 0.024052997503295953 -0.034979945917030145 -0.034257529286629833 -0.036925481502701196 -0.040030327311474885 -0.0016257098982551653 0.014810279356166986 -0.029624954742876033 -0.035636859140430688 0.036899957802427726 0.076580632681464963 0.066980275987511204 -0.037312373742643491 -0.039040043585737157 0.027212372910043969 -0.024399130366329451 -0.039039351539433505 -0.03463439892806134 0.037490737118207058 0.084563274950174003 -0.004890135275222824 -0.035037158569500911 -0.031608243167112547 -0.043041535059145354 -0.044042149899259038 -0.029593582002478681 -0.040854359708234346 -0.038488457894012208 0.080642605386319913 -0.034943057933290889 -0.014001900749056566 -0.034710656204053274 -0.010902071833179074 -0.038724654086084602 -0.040718746155268895 -0.015307198953613823 -0.016515348489608197 -0.036972584486053221 0.066558123269065017 0.02199795774963817 0.053985678476446884 0.046749588693905719 -0.0019646313142336193 0.0021928704774271503 0.063463557184837593 -0.030912655587373255 0.00915458702751888 -0.030273305202931783 -0.040406420090053942 -0.018436858840009455 -0.043743855669391207 -0.044335621737355259 -0.036267170953442729 -0.020154230585436108 -0.04307057351159238 0.054337390468785399 -0.040642879471934137 0.063974024905600391 -0.038855912912272833 -0.029976836717428193 -0.044181414785969424 -0.017960760556069141 -0.018878425077902928 0.031210955372895272 -0.036814746670906701 0.01439510900313689 0.031861846989587814 0.031882233867129003 -0.042968043338947763 0.031991989880559103 -0.031657748364644356 -0.042228134488593035 0.021707565323200229 0.044612634712731129 0.051536123379649149 -0.024074417261915924 -0.015760215405032564 0.041256520895513571 0.020825913518811863 -0.0076787406994361929 0.042037421703639673 -0.019490000035620649 -0.0081103957567359043 0.034137947292972315 -0.042029712526649693 -0.037084143904118093 0.060206528958553253 0.044649193750157704 0.031807030959765607 0.040678829119941466 -0.043890513983290635 -0.04378573104867782 0.023740128944669509
leaf_weight=13221.018445819616 5726.581823989749 27566.733471393585 11846.177396371961 4566.5428211092949 98812.285035729408 2669.785037830472 4743.8570066839457 247891.8658888638 2274.3183638453484 1699.8467451781034 12306.849050715566 11871.262723460793 1127.7915962338448 5368.6590736806393 15961.716873958707 1743.3783080726862 6156.8268654644489 14892.417705327272 55475.174306541681 12174.983081802726 65977.877493694425 7289.9229527562857 331666.83407390118 22148.540890693665 1341.7341313958168 4105.3089906126261 1906927.7826894224 3446.1054880619049 458231.93823447824 44154.302160486579 162716.77046205103 64616.557778656483 10286.235915273428 7370.4735324531794 33970.450151845813 10267.259039878845 11625.061918318272 128690.75098739564 1072.1001411825418 176401.4058778286 97684.339999198914 27917.86737626791 1435.2897939383984 1819672.0724376291 698076.29798653722 25452.171813055873 804.81097994744778 18789.725606709719 4961.1298685371876 1214.8736578077078 8498.1008782833815 10756.444005683064 652.42946144938469 32149.326849266887 627174.58097751439 554466.74142815173 6016.9552801251411 3087.998256623745 20540.994819954038 681.22612598538399 3700.5015110224485 799.02147036790848 1607.2531662136316 1377.2826254367828 8203.748558819294 4224.2358999550343 3635.9800708293915 7978.8406445533037 2719.2156748324633 15004.361617386341 52538.378994673491 7573.2533214688301 8945.7995283901691 1268.5552483648062 1331.4290681630373 3071.7008484750986 4649.4689998030663 683.50023716688156 6251.121663197875 14938.075734600425 1010.1768466085196 706.91191749274731 1245.000585258007 1582.5257741063833 45667.775389760733 21019.713973402977 214598.47587791085 2326.3381304293871 46877.818789869547 541745.27305907011 83171.949006348848 34781.766932815313 4585.1105157136917 16169.085808947682 17118.243662238121 1661.4873618930578 12899.689017757773 2343.1395334899426 23376.848086297512 9634.254324555397 16652.081319853663 19766.964246347547 1215.7536146342754 4309.2376112192869 17700.772402599454 72835.520642414689 22170.471302717924 41508.795332729816 2500.0242647081614 621.56689563393593 11952.994451925159 4791.1104383915663 1348.5466600209475 1153.5911200344563 1954569.8769552261 15975.441912025213 9883.1038201898336 126161.47001974285 2492.7971390634775 51773.789382711053 27074.888482272625 10169.462934553623 234767.40910992026 4448.6648504287004 1892.3987394422293 10421.249839887023 618.17391721904278 5523.7480838000774 2059.1915361583233 5845.5919089615345 6621.4999482780695 6587.9085342884064 10523.752362921834 5795.9535262435675 1300.1867419034243 7856.827598080039 5500.9216829240322 35902.537805527449 6341.040270999074 6515.844962567091 10711.485060960054 3102.8476565182209 3466.1375417858362 25425.101191431284 18305.45437310636 11112.419938787818 4103.3870016187429 4506.9549272209406 1045.9933314919472 1656.623472571373 5458.1579365581274
leaf_count=24312 2075 4229 17161 14953 41911 3553 2419 449759 4741 1904 20871 43060 5184 10329 1284 2137 10536 3239 143877 881 124828 32179 1099216 56943 5501 6473 59562 4664 1542616 169881 718737 272818 40087 11657 33269 9011 19285 395327 1716 496357 225374 45882 2756 6044497 2164080 105726 540 66800 19869 5107 3123 7239 2956 34678 19235 103262 23647 8323 46621 1113 7050 3407 3254 4190 10155 7415 5678 6582 517 8150 92801 13319 14567 5133 2039 4439 8191 37 20492 24103 1947 1333 5684 6342 84508 37643 15803 7888 169851 1791400 177487 58676 8035 43678 64653 7190 3220 5501 27485 7106 52395 61050 692 8861 51194 243757 30012 158861 11551 2797 21456 18338 6323 536 6820909 12166 20323 425253 11391 115934 102617 21100 706904 6044 2403 12635 1793 5120 4832 10584 15695 9684 13233 16423 2145 12898 13983 48321 10295 25307 36693 2240 5231 53563 9737 7142 7704 7835 4787 7631 12627
internal_value=0 -0.0303046 -0.034121 -0.0349201 0.0779551 0.0540945 -0.0382167 -0.0214993 -0.0139166 0.0730702 0.00231901 0.0360325 0.0161471 -0.00230646 0.0188827 0.0313552 0.0140836 0.0479594 -0.0384715 0.0795131 0.0134908 -0.0182521 -0.0387921 4.10536e-06 0.0286862 0.0292425 0.0801107 0.0615973 -0.0343274 -0.0314211 -0.0258193 -0.0171182 -0.0223893 0.000560665 0.043043 0.0112715 -0.0175452 -0.0262424 0.00543006 -0.0304367 -0.0146762 -0.0169056 0.000923294 -0.0396666 -0.038582 -0.0352088 -0.0325021 -0.0169334 -0.000469621 0.0264328 0.0566395 -0.00752028 -0.00841795 0.0804114 0.0779631 0.0791995 0.0155532 0.0405515 0.0263735 0.0498767 0.0139721 0.00166628 0.0320067 0.0523155 -0.00105569 0.0209394 -0.00949045 0.0141936 0.0571145 0.0474577 -0.0313136 -0.00821188 0.0265217 0.0258735 0.0302185 0.033477 0.00878962 -0.00902282 -0.00191091 -0.0195114 0.0492271 0.0262494 -0.0223943 0.0511728 -0.0365399 -0.0299827 0.0801258 0.0143652 -0.00578028 -0.0341547 -0.00686556 -0.0314298 -0.0232155 -0.0150102 -0.0205427 0.02031 0.0614429 0.0174697 0.0438486 0.0265426 0.0124103 -0.00861239 -0.0296764 -0.000947952 -0.00189691 -0.0232279 -0.0189171 -0.0260909 -0.00203511 0.0249058 -0.0170875 0.00527947 -0.0118423 -0.0115594 -0.0397848 0.0587694 -0.0297954 -0.0259264 -0.0121365 -0.0264805 -0.0099879 0.0174837 -0.0338035 0.0454775 0.00960178 0.0216595 0.0276997 -0.00572231 0.014708 -0.0324495 0.0112589 0.0368931 0.0431073 -0.0102962 0.0339008 0.0340053 0.00820131 -0.0114176 0.0339524 0.00401028 0.00867468 -0.0291153 -0.00606408 -0.0288137 0.0754743 0.0383139 0.0101168 0.0263674 0.000980893 0.00085467 0.0121328
internal_weight=0 8.69306e+06 8.31699e+06 8.22332e+06 3.37445e+06 376074 6.6017e+06 1.62162e+06 919167 250707 315185 93669.6 125367 74361.5 66102.8 54231.6 80352.6 19459 6.58224e+06 3.29409e+06 201731 102702 6.47954e+06 98560.5 34408.9 56765 3.18773e+06 106362 1.06139e+06 702454 335434 172717 603983 15714.5 51005 38269.9 113453 402742 36515.3 603159 201240 58110.8 23624 5.41815e+06 3.59847e+06 945828 614161 58916 33463.8 14674.1 9712.97 65892.7 20281.4 3.14656e+06 1.23963e+06 1.19995e+06 29225.4 39686 103171 16250.7 18255.3 19648.6 8344.01 18694.5 54046.6 14980.7 39065.9 11614.8 41170.7 28995.7 66186.9 13648.5 13991.4 23208.5 6075.29 17988.4 7721.17 108100 63945.9 27451.1 6736.76 14554.8 23587.5 42762.5 367020 119128 216298 11272.1 86253.7 555245 103556 47560.4 73460.4 94282.4 66295.4 8654.96 13580.9 13491.8 37116.4 13739.6 37193.1 47525.4 308460 12513 27987 191990 119154 63679.3 10366.5 8792 52440.6 10566.6 13499.9 12778.7 2.65265e+06 17352.7 11626.5 179769 4835.94 177935 46841.9 16420.6 411169 36598 20383.9 12695.6 1833.93 23752 7582.94 6650.4 7866.5 7209.48 12641.8 7688.35 13119.5 8655.85 6849.47 40487.6 6993.47 39375.9 32860 34486.9 6568.99 42543.3 572772 12412.6 7549.49 5775.51 2118.09 8242.57 6585.95
internal_count=26877324 26408162 26180137 26067022 469162 228025 21710179 4356843 2340389 58497 699200 113115 169528 91994 108886 65826 142039 18192 21691987 327123 533509 217446 21474541 309665 40790 84797 272844 54279 3322384 2016454 1366732 647995 1641189 18933 77534 64542 165691 1202126 106868 1779768 439063 84108 30755 18152157 12107660 3122671 2023455 200625 94899 28099 8230 87194 42901 240841 181279 132234 74689 49045 223844 7886 20426 43733 7276 21857 70033 14654 55379 12260 32003 31122 110578 17777 22972 51042 4458 21641 12630 375177 205296 43119 4022 13376 57242 52092 649722 199963 17707 22455 288794 1822830 213689 78497 115455 263127 171846 20441 4333 33197 41064 13579 99016 163704 938999 19016 91281 576507 332750 188873 32930 18823 77812 31306 31430 19821 8984989 16356 22460 543672 16892 541187 163667 41592 1203261 40722 36202 17376 2485 53630 9952 11124 21379 12481 19736 18826 10620 16305 20306 56356 13251 118943 93636 53353 7471 118216 112999 9287 12368 12968 6503 25442 17811
cat_boundaries=0 10 25 28 41 44 48 63 64 71 72 87 104 112 114 125 139 155 156 163 164 171 199 204 205 210 226 228 244 260 276 278 280 295 314 329 345 346 350 356 358 359 364 367 370 373 375 377 378 381 384 386 388 403 405 412 413 415 416 432 434 449 452 453 455 457 458 460 462 470 472 488 489 491 493 494 496 497 499 501 502 504 520 522 523 525 526 529 545 546 548 549 565 584 586 588 590 592 594 596 598 612 614 616 618 633 635 651 653 655 657 658 659 661 662 690 706 707 723 725 727 729
cat_threshold=537396257 1351887016 10223876 33556640 4325376 0 33792 0 512 134217728 2097152 0 0 0 0 0 2097152 524288 0 0 0 0 0 0 1073741824 135269120 16401 2 0 0 0 16793600 0 0 0 0 0 536870912 0 33554432 4194304 555745281 262144 8 21585921 262144 1048576 1 0 0 0 2181171712 131585 262144 8388608 3159296 2097672 0 134234112 17301760 262144 33 537659394 24576 0 0 0 0 0 0 2097152 24576 1073741832 0 0 2147614720 131072 0 2097152 524288 0 0 0 0 0 0 262146 134234116 0 4194304 0 0 0 0 0 0 0 0 0 0 0 0 0 16777216 0 0 0 0 0 0 0 524288 32 8388608 0 0 0 0 0 0 0 0 0 0 134217728 0 0 0 0 0 0 0 0 0 0 8388608 134217728 0 1073741856 0 0 0 67108864 33554496 8192 8388608 1024 4 2684354560 17440 256 0 67108864 2097152 130 24576 84148224 67108864 1 0 0 0 65536 24576 0 276824096 8650752 160 0 0 32768 729769737 134480448 135168 8193 0 0 0 0 0 0 0 0 0 0 0 0 0 0 2147483648 0 0 0 0 0 0 0 0 4 38625280 4194304 276956304 4228160 48 24576 43418944 138416160 196880 32768 48 0 0 0 67110912 4096 8192 134217728 1048576 0 2147483648 16416 16777216 0 1073741824 2359296 642 152229582 106962080 532480 0 0 944799744 33558661 262144 0 2359296 6291456 2281701376 536870944 0 272695296 16385 536872960 196608 0 0 0 2147483648 135168 0 142606336 1049856 4 0 16384 16777216 0 0 264192 512 8192 0 0 944799744 37884033 4194304 524288 2359296 12 0 256 256 4259844 35 788480 65536 433437339 72775692 3579448 11669799 8192 0 0 642253312 33559173 0 8912896 2097152 1028 134217728 1048832 34078720 37748740 545259808 2099200 38756352 71303232 1052944 4195328 48 0 0 0 0 0 0 0 0 0 0 0 0 0 2147483648 1073881088 0 0 826835456 37748865 4456448 8192 262400 8 536870912 9437184 4096 4194304 35 788482 524288 0 0 68304896 131588 8192 1114112 0 4194820 0 671088896 134217728 196612 256 536903680 197122 4374732 8400898 0 0 16384 16 32768 0 0 0 1 705167360 243402832 2383873 1056 8192 524288 0 131072 1 262152 1048832 306931906 166672 8388608 1937761601 134516817 4096 2332595789 206531940 5218568 4112 548864 39658240 512 8 16781376 66 16777217 2164694098 5085067 2176240000 6129034 1073741832 0 0 16795680 512 0 0 0 18874368 0 0 16777216 262144 0 262146 1098977344 188877076 0 0 0 32 0 0 2097152 731456 437435897 84448520 81922 0 0 0 71434240 33554496 8192 134217728 1024 4 0 134235136 16777472 0 1140850688 2 2 280321946 1613826 0 0 0 2147616768 131072 0 8388608 1048576 512 0 134234112 16777216 0 0 2048 108036114 67141632 1073741824 1728512 2521326674 33024 3528241939 151152670 270464 308273152 512 3775963154 257591655 0 0 0 0 4096 0 134217728 1048576 1611205685 21037122 0 0 0 16795648 135744 8192 134217728 1024 4 2147483648 134218752 16777472 0 0 2 2 15 270829152 28640196 5159744 56 8409344 2153408576 264 942080 3293835528 215438010 3255653024 215341743 134217728 3351327112 67236699 0 0 0 2147483648 0 0 134217728 1049600 0 0 0 0 0 0 262144 512 2305002553 19826861 17039360 392264195 12774556 3162112 38412384 1 64 131072 0 0 16926720 4325376 8192 1122304 13312 0 536870912 256 184549632 131076 1611137026 2359296 643 513181000 2922912800 68883070 12083200 0 0 0 469811744 131588 8192 134807552 266240 2097156 134217728 545259520 167772160 33882116 1 2359312 65536 1074826532 67273776 0 0 0 0 0 0 0 0 0 0 0 0 0 0 0 0 2147483648 1049089 134348816 2625932736 13644424 1216463080 216936972 2813393075 51139298 792348425 255959060 419430528 67377152 1459203 262148 0 0 0 2147483648 131072 0 0 1280 0 0 0 0 0 67108864 65536 17408 18885960 2755717 84058129 8917013 131072 0 0 16896 64 262144 0 4096 2097664 0 536871936 134742016 0 0 536870912 151060480 8 0 0 0 0 0 0 1056768 1318912 0 2684354560 536871968 16777216 327680 1073741826 557056 131202 34916352 6558464 427898378 76089120 1090519811 151838 2560 6291471 29442369 67600 12984320 602633473 134479940 1052672 0 0 0 0 0 0 0 0 0 0 0 0 0 0 0 2147483648 0 0 0 0 0 0 0 0 4 0 0 0 268435456 0 262144 0 5120 512 0 0 0 131072 67108864 0 512 8405000 1073741832 0 0 131104 0 262144 1056768 0 6291968 671088640 0 34078720 268566528 67125504 539000834 131075 537101546 33620500 307061066 256 1888486548 73797908
is_linear=0
shrinkage=0.03


Tree=3
num_leaves=152
num_cat=57
split_feature=58 66 2 72 4 51 11 62 2 58 68 62 76 75 65 55 2 4 55 67 62 63 55 72 2 11 66 2 2 62 67 75 2 65 2 60 63 67 4 2 64 2 11 76 75 60 68 74 4 68 67 2 63 72 68 58 61 67 55 68 51 76 68 75 74 2 69 71 65 58 51 62 66 75 9 2 51 9 70 51 51 2 58 75 51 2 62 68 55 2 2 6 6 71 6 6 2 6 6 65 6 68 6 70 62 68 51 51 58 6 6 6 75 62 6 6 4 51 11 6 6 9 55 58 6 6 6 6 6 6 6 64 51 58 6 68 72 6 70 58 6 6 6 2 6 64 6 2 6 4 2
split_gain=1.93064e+07 3.43604e+06 2.71493e+06 1.21597e+06 554215 383288 259047 152656 150686 135319 133990 126944 123791 270133 103088 89764.9 78844 73001.9 56133.8 55903.9 49411 49717.7 47488.7 46156.9 45837 44704.6 38254.5 37737.4 37726.4 37135.7 46706.5 35536.4 32331.4 31341.9 31191 30012.2 36931.7 26322.5 26166.8 25761.1 25553.6 40416.4 37489.5 25349.7 84191.6 25272.7 24415.4 23569.3 23379.2 22984.9 21915.4 21842.2 19498.1 19492.4 19335.7 21649.9 19041.8 18362.1 17966.6 17667.1 17651.2 20755 25741.8 18006.9 18212.5 17160.7 16703.5 16490.7 16284.6 17300.2 18701.3 16213.6 16197.2 15994.6 15276.8 15253.3 15065 17548.8 14321.2 14244.5 14042.9 13809 13775.6 13319.8 13302.4 13098.7 13010.2 12542.2 12512.7 12385.3 12368.5 12125.9 11986.1 11923.7 11909.8 10937.2 10907.2 10838.1 10658.3 10558.5 10399.9 9783.92 9738.66 9649.53 9590.81 9745.99 9392.39 9332.01 28568.2 16583.7 9883.09 9209.75 9180.23 9071.55 11510.1 8962.27 8893.2 8868.63 24607.4 8858.83 8832.97 8790.56 8692.05 8668.99 8587.58 8574.09 8406.03 8335.16 8324.4 8276.34 8171.64 9737.51 8059.77 11733.3 7898.18 7809.3 15806.6 9266.33 7774.42 12636.5 7753.12 7728.8 7585.5 7552.76 7533.85 7405.18 7342.78 9135.7 7247.61 7164.83 8088.25
threshold=3.5000000000000004 1.5000000000000002 0 1.5000000000000002 1 266.50000000000006 41.500000000000007 18.500000000000004 2 1.5000000000000002 59.500000000000007 12.500000000000002 1.5000000000000002 14.500000000000002 263.50000000000006 5.5000000000000009 3 4 1.0000000180025095e-35 3.5000000000000004 6.5000000000000009 32.500000000000007 760.50000000000011 2.5000000000000004 5 635.50000000000011 2.5000000000000004 6 7 6.5000000000000009 4.5000000000000009 1.5000000000000002 8 5.5000000000000009 9 12.500000000000002 63.500000000000007 3.5000000000000004 10 11 2.5000000000000004 12 94.500000000000014 2.5000000000000004 29.500000000000004 10.500000000000002 1.5000000000000002 2.5000000000000004 13 1.5000000000000002 7.5000000000000009 14 3.5000000000000004 3.5000000000000004 27.500000000000004 12.500000000000002 1.0000000180025095e-35 5.5000000000000009 2.5000000000000004 89.500000000000014 2126.5000000000005 9.5000000000000018 752.50000000000011 56.500000000000007 7.5000000000000009 15 1.5000000000000002 1.5000000000000002 339.50000000000006 11.500000000000002 765.50000000000011 23.500000000000004 5.5000000000000009 1.5000000000000002 45064.500000000007 16 355.50000000000006 4427.5000000000009 24.500000000000004 930.50000000000011 84.500000000000014 17 11.500000000000002 3.5000000000000004 1028.5000000000002 18 95.500000000000014 1.5000000000000002 602.50000000000011 19 20 21 22 2.5000000000000004 23 24 25 26 27 25.500000000000004 28 1.5000000000000002 29 116.50000000000001 18.500000000000004 32.500000000000007 278.50000000000006 67824.000000000015 1233.5000000000002 30 31 32 13.500000000000002 52.500000000000007 33 34 35 255.50000000000003 308.50000000000006 36 37 9598.0000000000018 2.5000000000000004 2.5000000000000004 38 39 40 41 42 43 44 1.5000000000000002 508.50000000000006 2.5000000000000004 45 424.50000000000006 10.500000000000002 46 45.500000000000007 7.5000000000000009 47 48 49 50 51 4.5000000000000009 52 53 54 55 56
decision_type=2 2 9 2 1 2 10 2 9 2 2 2 2 2 2 2 9 1 2 2 2 2 2 2 9 10 2 9 9 2 2 2 9 2 9 2 2 2 1 9 2 9 10 2 2 2 2 2 1 2 2 9 2 2 2 2 2 2 2 2 2 2 2 2 2 9 2 2 2 2 2 2 2 2 8 9 2 8 2 2 2 9 2 2 2 9 2 2 2 9 9 1 1 2 1 1 9 1 1 2 1 2 1 2 2 2 2 2 2 1 1 1 2 2 1 1 1 2 10 1 1 8 2 2 1 1 1 1 1 1 1 2 2 2 1 2 2 1 2 2 1 1 1 9 1 2 1 9 1 1 9
left_child=1 27 35 4 9 11 8 15 20 19 26 53 13 16 39 32 48 50 46 25 -6 31 47 34 43 65 28 33 -8 101 66 49 -4 -1 38 -2 99 146 123 104 -29 -42 -43 44 112 -24 129 59 67 97 -7 84 -34 90 71 79 -40 58 -33 -15 -45 62 63 119 141 -3 130 78 113 70 -70 89 87 85 -59 -48 -39 -78 -9 -56 -32 -74 -61 94 102 134 128 145 -46 -18 121 -72 -79 -38 -17 -84 -21 -22 116 -37 -90 120 -19 -47 -11 -106 -27 -63 109 -109 -110 -71 -14 114 -50 -86 -60 118 -98 -62 -20 126 -58 -13 -64 -54 -5 -30 -12 -10 131 143 133 -52 -68 -26 137 -137 -69 -140 -105 -65 -81 -31 -124 -67 147 -28 -75 -73 -151
right_child=2 3 7 5 6 17 10 12 18 14 86 23 24 22 -16 83 54 51 29 96 21 -23 45 -25 135 106 37 40 127 30 80 57 52 -35 -36 36 93 76 56 -41 41 42 -44 60 88 103 75 -49 68 -51 132 -53 125 -55 55 -57 122 74 98 82 61 107 124 64 -66 72 73 138 69 111 91 149 81 148 -76 -77 77 92 -80 142 -82 -83 95 -85 115 -87 -88 -89 100 -91 -92 -93 -94 -95 -96 -97 117 -99 -100 -101 -102 -103 -104 140 105 -107 -108 108 110 -111 -112 -113 -114 -115 -116 -117 -118 -119 -120 -121 -122 -123 144 -125 -126 -127 -128 -129 -130 -131 -132 -133 -134 -135 -136 136 -138 -139 139 -141 -142 -143 -144 -145 -146 -147 -148 -149 -150 150 -152
leaf_value=0.071691227803708832 0.071714810395075976 -0.020051293616734998 0.072860026610644446 0.013910017447129018 0.065238469943574948 0.013017964254830341 0.060326900880921984 -0.01130182896178058 0.01588968472188294 0.058560070265385553 0.038052645789794844 0.019192244650891702 -0.032384193095999395 -0.016307037042528477 0.064359021841320488 0.028820794721229233 0.064600656140595028 -0.018590682583400436 -0.040757476200048756 -0.023320843458345182 0.030437044287883266 0.059244574229757159 0.055323947913233515 -0.035340890879069352 -0.040293994993095598 0.0021621320793317523 -0.01059365706022199 0.077481993947644573 0.021604526094498248 0.04800301743511029 -0.0019601549505370041 0.036577897087992785 0.062970500682352742 0.012884082834024167 -0.030753499452625479 0.056384934772951797 0.0018306985156161014 -0.01541259257857883 -0.03073446131494215 -0.019992305885987573 0.073502778759282461 0.06145039501294855 0.013301145678526737 -0.037177445686507257 -0.0079017709376686604 -0.026083310151457022 -0.020782612960485603 -0.01619861108461125 -0.0018721998439062523 0.052407038181241719 0.054530957945448759 -0.035490933459464628 0.024708635801463534 -0.02156093957397677 -0.024637929161225706 -0.030225456024417455 0.035183536847191124 0.0077762060397037714 0.010987266728799587 0.041206539561118471 -0.023653596421756858 -0.036769568333923246 -0.038142083926868901 -0.02762149911652273 -0.022691580415245865 0.047492384330834088 0.054103828738123347 -0.024026711741587572 -0.023462337015263957 -0.011414074020430506 0.044214321655544668 -0.039143078924829385 0.051433518138136854 0.016585489403727963 0.041318482515027413 0.05062050889541516 -0.01759297281475853 -0.012813461971646874 0.018582243808617425 0.033389121050606548 0.03872809736204922 0.017421061857835499 0.023612620833762879 -0.031798617180890013 0.056581154547062001 -0.032752730902685559 0.056062405079341585 0.068309916804523488 0.050375439349337053 -0.023651746214237684 -0.012026121601573302 -0.011236327465839977 0.043456683566259924 0.066008433084247975 -0.030543933772301295 -0.013392607280879916 0.067324386890435226 -0.02727941168331351 0.01458186817048018 -0.031837693191751885 0.0064001693563988556 0.058520385356924637 0.018665109324822671 -0.038170603592737551 0.0028012249980558586 0.033627549203791088 0.044188151612434633 0.052422881922875489 -0.017573735347685686 -0.033487023774544537 -0.040573383710430053 -0.028844333630178895 -0.021798858558348694 -0.032009043026513563 -0.032672756792173525 0.0045680912432376338 -0.026305135317705636 0.071640901137073859 0.03347091970536932 -0.033910511653464419 0.033509061308219498 0.014938864880437362 0.0020750681034016551 -0.019093328255897716 0.051981322234641629 -0.030498336106519967 0.052417522646971006 -0.037175614058651676 -0.010010306081656954 -0.04323953085127185 -0.032101379652409397 -0.01834729440947613 0.06762659916597781 -0.0090844168344308193 0.0054419339859670766 0.057150258258844615 -0.033239153946134033 -0.042790399045425115 0.042822340143809631 -0.015504896188562227 0.047530595962589815 0.059084303565575418 -0.01190743206461194 -0.026592073019608323 -0.020473927222803695 -0.011323267682763634 -0.036452226203518442 -0.037132784525337657 -0.02323877404214824 -0.02949370895210407 -0.037043554025822351
leaf_weight=16707.926410093904 216344.69295400381 2747.7325730770826 18305.717314749956 6755.3831700980663 71421.881701275706 9977.8886314481497 11620.498851135373 90257.313910603523 5223.312423735857 4660.7115136235952 8978.4869013726711 32278.442235678434 582548.80406086147 14305.184072524309 40524.65882204473 7648.9682165086269 2454.6319987624884 10141.157922744751 1907.9788613915443 1176.1970800608397 7635.5243533402681 73727.006331473589 28371.14189325273 260382.34354224801 1669449.1840090454 20264.977773755789 31454.765875563025 1618896.9654317498 3146.1672892570496 3887.1607354581356 10855.233731016517 22063.195211440325 4991.6569113433361 15936.551101028919 90008.111734271049 1505.5179684013128 2939.2990034073591 56868.325629979372 44940.407932966948 25152.396212890744 520285.40155218542 72356.5996440202 18218.01563757658 1616272.8989614248 9680.959010258317 5529.4528344273567 2868.1031885743141 40618.034329339862 21688.655643820763 76702.185281708837 17571.696172371507 8649.5174578130245 4148.927381888032 8592.2877786755562 13220.638673648238 185819.43968628347 4524.3804078549147 15706.938616737723 9856.3648336529732 19454.066735908389 155828.01316404343 519503.85964037478 1169.9556011259556 1122.8006539195776 9023.6545690000057 8145.7542338073254 9033.1683318167925 148824.39133352041 13503.125760853291 40072.477528214455 10110.275683388114 529443.66211435199 50266.178689017892 5447.1417192965746 55056.17189989984 43879.96390889585 11808.999490007758 4543.1504677385092 17179.667158722878 9874.1458671689034 25727.652464434505 13707.057894989848 17912.672662481666 28025.566840142012 9718.5813537091017 2852.5071469694376 28163.186214119196 76238.421074390411 12600.625458821654 3405.7684638351202 6265.9274937957525 5465.9550582319498 13609.985777035356 22939.67403408885 5035.3706561326981 11994.98827020824 144315.4081402719 4736.8383224606514 40196.731646150351 6458.290488421917 7875.4687049984932 11877.784550875425 16700.761396765709 1197.2424844205379 27455.462768241763 13905.511717990041 6265.9763785451651 6125.0841839313507 26588.379440426826 3010.1049683839083 45994.408588796854 85774.070703446865 84423.309180617332 304041.99154368043 21997.131709218025 4314.4111037403345 13831.485072508454 262445.37305082381 22311.783505648375 148113.4127714932 5803.1272962391376 15482.782381743193 29527.386140808463 6373.8731954544783 4986.8822592049837 6465.1853927820921 21162.469029918313 6968.262797743082 5073.0840850174427 3584.4034925252199 33538.374531835318 29013.210048049688 46303.906331762671 3064.4671891331673 4510.7248235046864 2918.3238626420498 40182.901992842555 1161.2151024639606 4042.5339417904615 19316.265763297677 4502.0783635377884 5194.7284650355577 5013.1253360509872 1773.9734919965267 24309.891770839691 2523.4388146400452 53608.489381104708 18579.606421068311 16723.606297135353 203265.30009366572 346524.28411963582
leaf_count=2950 38867 10533 2503 8878 21132 25840 5746 326949 9166 3972 10352 76916 1844808 35212 24952 8864 672 27695 4437 4689 8989 48617 13685 1064498 5479118 61489 62054 61028 4674 2246 34588 28498 1726 27235 331101 886 6496 188509 163809 98181 82116 39517 34475 5909110 27504 7750 9294 114826 30357 66796 17096 25452 5134 22840 52490 554021 7235 36558 26376 23763 329936 1351315 4267 2426 23633 10069 6951 608380 54427 91063 7273 935647 55586 10641 73775 44973 20908 8299 41702 12010 32507 32939 27992 76954 5075 7061 18618 32594 10050 7395 12349 9748 10387 8807 11458 27937 68121 12293 62630 21050 14135 4840 29084 4335 84131 25546 8616 3802 41734 5222 84216 198048 240962 712263 39009 7955 25421 78896 40270 332479 4578 24558 67034 24705 4765 14338 13954 19420 12147 10371 105083 81923 21429 10560 9532 2144 105788 3398 5956 72665 4996 3269 12618 3130 71100 8791 145997 56083 47552 875300 1588660
internal_value=0 0.0488954 -0.0295596 0.0227581 0.0371262 -0.0108991 0.0209122 -0.0329109 0.0315267 0.0565232 -0.00451368 -0.021716 -0.0333547 -0.0274768 0.0261643 0.00977666 -0.0302251 0.0362038 0.0115716 0.0620786 0.0426789 0.0376374 0.0122778 -0.0266711 -0.0359949 0.0480484 -0.0142239 0.0750399 0.0234829 0.00269373 -0.00260015 0.031156 0.0458278 0.0429693 -0.0169391 0.0676025 0.0413342 -0.0185266 -0.00817719 0.00441726 0.0755089 0.0702809 0.05176 -0.0338954 -0.0288275 0.0402465 0.0376136 0.00165726 -0.0226996 0.0462865 0.0544948 0.00779546 0.0140631 0.0201596 -0.0347565 -0.0265137 -0.0160565 0.0225559 0.0132379 0.0130489 -0.0352849 -0.031984 -0.0258815 -0.0270532 0.00465851 0.0542586 -0.0126229 -0.0157463 -0.026568 -0.0184783 0.00237683 -0.036382 0.0556096 0.00315703 0.0338733 0.0462461 -0.00634231 0.0108731 -0.00652323 -0.0019752 0.0266547 0.0441567 0.0215563 -0.0202541 0.0169598 0.0256225 0.0442985 0.0640465 0.0202022 0.0133827 0.0273773 0.024777 0.0293909 0.0587192 0.0052531 0.00877445 0.0679535 0.00834248 0.00517722 -0.0151596 0.0334895 0.0414374 0.00458951 0.0021511 0.0177584 0.013165 0.0120877 -0.0352872 -0.0258634 0.0241357 -0.0321562 -0.0232973 -0.0310443 -0.0301723 -0.0173891 0.0406334 -0.0107834 0.0682026 0.0627913 -0.0286538 0.0151237 0.0330613 -0.00475394 0.0128788 0.0348781 -0.00892406 0.0431235 -0.0188883 0.0207203 -0.0082047 -0.0215448 -0.0113215 0.0606772 0.0450841 0.0379132 -0.039964 -0.0275269 0.028738 -0.0215012 -0.00541063 0.029544 0.0437241 0.0181504 0.0246657 -0.00811021 0.0335815 -0.0287345 -0.0204541 -0.0134573 -0.0366522 -0.0342535
internal_weight=0 4.52542e+06 7.50376e+06 2.26302e+06 1.58597e+06 677046 863865 7.25358e+06 609442 722107 254423 550604 7.17895e+06 2.22518e+06 111699 74621.4 2.08129e+06 126442 218507 610408 390934 319512 143885 492345 4.95377e+06 180160 212208 2.2624e+06 21734.9 162952 143363 245785 33911.5 32644.5 231962 250187 33842.8 190473 141954 71174.1 2.22976e+06 610860 90574.6 3.24006e+06 697129 39599.9 55555.8 104285 782274 89074.5 76918 49524.4 15605.8 58258.8 1.29902e+06 213927 103302 156711 85947.8 63666.9 2.54293e+06 926661 325439 319283 15341.2 153629 106780 279620 502654 154926 29079.4 1.08509e+06 150881 38567.1 70763.1 46748.1 86830.5 29962.1 107437 28107.9 36582.9 63973.2 49361.7 40709.9 40874.9 16396.4 42214.8 86907.6 30157.1 5860.4 49666.6 15576.2 18153.1 25879 12684.3 29907.7 430249 12372.4 63884.6 7963.81 20476.1 19588.9 26841.9 11228.8 46021.7 41361 26531 601222 81718 9135.19 72582.8 125847 666972 347728 43685.8 14033 23687.8 429073 166627 303941 7711.11 43400.6 58361.7 38652.3 6156.84 10614.1 27917.9 10114.4 14051.6 8807.72 68212.7 34674.3 66940.1 20636.2 13543.9 1.71371e+06 44262.4 4079.54 172183 23358.8 5699.32 6317.53 14887.3 5661.13 53837.3 10669.2 103643 50034.4 22170.7 1.07923e+06 549790
internal_count=26877324 4359011 22518313 4111690 2052527 2059163 1403152 22442207 839958 649375 563194 1888977 22321230 6497149 236782 120977 6236653 170186 428873 412593 411085 389953 260496 1806398 15824081 220617 522077 247321 29840 355069 341214 341336 23701 30185 741900 76106 37239 492237 410799 211830 217136 156108 73992 10233633 2137459 30766 73804 229730 2197840 88078 74925 95261 21198 82579 4038813 631139 309178 253258 142925 114904 8096174 2187064 700775 691743 29328 150512 274119 1055652 1142188 360559 71448 3407674 139979 81737 110333 54267 228103 39594 368651 77118 67095 88525 79692 97276 69809 23544 41117 51454 51689 8067 59739 17021 18686 15303 20322 55929 191976 21282 114427 21936 24185 13855 56779 17081 113649 109677 70105 1486289 134974 9024 125950 289111 2085770 781629 69366 13030 51797 187287 108391 662415 9015 47390 145369 101621 9032 19472 22832 24094 22499 19537 192382 87299 49085 27656 16483 5590448 111330 5542 687001 78621 9331 5695 24628 5376 138134 18860 264134 118137 58193 3399607 2463960
cat_boundaries=0 3 4 7 35 36 64 92 120 148 153 154 156 159 160 162 181 209 210 212 214 216 218 220 222 224 243 245 247 249 251 253 255 257 259 261 262 264 266 268 270 272 274 276 278 280 282 284 286 288 290 292 294 296 315 317 318 323
cat_threshold=555745281 671350848 1052672 2 828907715 538184000 131072 4808832 0 0 1 0 0 0 0 0 0 0 0 0 0 0 0 0 0 0 0 0 0 0 0 0 0 0 4 2 4939776 33554432 131336 4195392 48 0 0 0 0 0 0 0 0 0 0 0 0 0 0 0 0 0 0 0 0 0 0 4 4 101737600 0 139265 0 0 0 0 0 0 0 0 0 0 0 0 0 0 2147483648 0 0 0 0 0 0 0 0 4 1495271571 537168241 4096 0 0 0 0 0 0 0 0 0 0 0 0 0 0 0 0 0 0 0 0 0 0 0 0 4 1207961748 67143737 8196 0 0 0 0 0 0 0 0 0 0 0 0 0 0 0 0 0 0 0 0 0 0 0 0 4 1768448001 838862912 268632352 65616 48 2 1766600848 536987729 1764239505 671385713 1052680 2 1903043843 262208 8388644 1202721920 32837 0 0 0 0 0 0 0 0 0 0 0 0 0 0 0 2147483648 8388644 117572740 32835 0 0 0 0 0 0 0 0 0 0 0 0 0 0 0 2147483648 0 0 0 0 0 0 0 0 4 39805184 3390555904 544 1073743888 49 1583081938 536905789 824205886 156929475 269786129 132018128 1359888049 11211580 1846187499 87253163 1216348160 2097152 0 0 0 0 0 0 0 0 0 0 0 0 0 0 0 0 2147483648 2698668929 50662369 1720796061 121694884 163915314 166605892 2273686076 44072426 172633815 601197 75965108 168984661 1130824859 69206464 2151649715 7984897 3233342724 54127650 1 1854821191 103095964 2289664975 127502993 2379428471 205361170 237260290 22282384 677957648 79575589 553931270 159383680 2824228520 162819121 284904151 25177642 2726146520 254841888 2454719794 103118039 2855892 157614744 2507883760 204002728 213186784 55388936 3360997940 206616571 2214990344 37392 2937884193 92736219 719669899 190060170 172908865 4195120 69861792 8213 0 0 0 0 0 0 0 0 0 0 0 0 0 0 2147483648 268501650 16879872 8 34997760 4196352 272 41984 48
is_linear=0
shrinkage=0.03


Tree=4
num_leaves=152
num_cat=99
split_feature=3 11 1 3 72 3 3 65 1 3 3 63 63 3 3 76 2 3 3 63 2 2 76 3 3 53 2 3 5 63 3 2 4 72 2 50 72 3 63 4 2 5 3 3 3 3 11 53 4 6 11 70 3 12 8 4 3 61 5 10 3 63 3 3 6 3 63 3 63 3 11 2 50 2 1 75 50 6 76 12 5 6 3 63 2 6 72 2 6 6 6 6 6 2 4 6 63 3 2 3 5 3 6 2 4 5 5 6 5 8 6 6 8 2 2 3 73 76 53 3 6 6 5 8 65 72 65 3 6 3 3 65 8 2 6 6 6 11 6 72 5 6 72 5 1 53 6 70 8 11 6
split_gain=2.04814e+07 3.89401e+06 1.39354e+06 1.1377e+06 892545 525133 337047 326337 287722 265074 218122 122948 118749 104344 94690.3 114869 118496 74692.2 95574.4 71739.2 66026.9 63763.4 61078.7 60164 51337.3 96490.4 74883.2 44416.7 43550.2 42791.7 37271.1 36981.9 32824.4 30602.1 35630 30513.6 28610.4 29071.9 26395.1 26122.7 25842.4 25640.6 23716.9 23090.3 33204.3 51844.6 59853.1 22701.2 22085.5 21407.9 21125.3 22639.9 20630.7 20446.8 19605.6 19007.8 18505.1 17726.7 17618.5 16964.4 16729.5 16248 16013.6 15802.1 15300.9 14912.6 14627.4 14310.9 14158.6 13548.2 13524.6 13132.6 13119.1 12902.6 12845 11875.4 11723.6 13684.4 12602.1 15756.6 11519.6 13376.4 11492.6 11320.4 19179.6 10942.8 10814.8 11792.7 10639.6 10358.4 10295.3 10155.8 10015.3 9671.62 9479.57 12617.3 9391.33 56234.9 20994.6 9274.36 9234.54 9166.43 9035.98 8952.84 8925 8795.32 8759.62 12236.8 8714.07 8564.52 8401.23 8388.6 8232.71 8210.13 8172.38 8135.57 8109.51 8040.08 14688.8 8022.12 11887.9 7948.24 7916.32 7789.16 7717.28 7703.15 7637.39 9103.9 7615.97 7574.75 7557.76 7464.05 7420.72 7300.8 7276.71 7271.25 7194.57 7097.49 13013.6 7064.06 7043.62 6942.92 6909.89 6826.88 6815.57 6766.5 6760.12 6696.02 11369.4 13622 6810.25
threshold=0 1.0000000180025095e-35 1 2 4.5000000000000009 3 4 5.5000000000000009 5 6 7 8.5000000000000018 6.5000000000000009 8 9 1.5000000000000002 10 11 12 11.500000000000002 13 14 1.5000000000000002 15 16 2.5000000000000004 17 18 19 6.5000000000000009 20 21 22 1.5000000000000002 23 3.5000000000000004 2.5000000000000004 24 6.5000000000000009 25 26 27 28 29 30 31 3113.5000000000005 297.50000000000006 32 33 6685.0000000000009 18.500000000000004 34 2681.5000000000005 21.500000000000004 35 36 10.500000000000002 37 7.5000000000000009 38 15.500000000000002 39 40 41 42 147.00000000000003 43 12.500000000000002 44 2107.5000000000005 45 7.5000000000000009 46 47 12.500000000000002 67824.000000000015 48 4.5000000000000009 2202.5000000000005 49 50 51 17.500000000000004 52 53 1.5000000000000002 54 55 56 57 58 59 60 61 62 16.500000000000004 63 64 65 66 67 68 69 70 71 72 73 74 2.5000000000000004 75 76 439.50000000000006 77 78 79 2.5000000000000004 1.5000000000000002 3516.5000000000005 80 81 82 83 247.50000000000003 32.500000000000007 2.5000000000000004 11.500000000000002 84 85 86 87 18.500000000000004 7.5000000000000009 88 89 90 91 51.500000000000007 92 50.500000000000007 93 94 1.5000000000000002 95 96 333.50000000000006 97 71.500000000000014 5.5000000000000009 4.5000000000000009 98
decision_type=9 10 9 9 2 9 9 2 9 9 9 2 2 9 9 2 9 9 9 2 9 9 2 9 9 2 9 9 9 2 9 9 1 2 9 2 2 9 2 1 9 9 9 9 9 9 10 2 1 1 8 2 9 8 8 1 9 2 9 8 9 2 9 9 1 9 2 9 2 9 10 9 2 9 9 2 2 1 2 8 9 1 9 2 9 1 2 9 1 1 1 1 1 9 1 1 2 9 9 9 9 9 1 9 1 9 9 1 9 8 1 1 10 9 9 9 2 2 2 9 1 1 9 10 2 2 2 9 1 9 9 2 8 9 1 1 1 8 1 2 9 1 2 9 9 2 1 2 10 8 1
left_child=4 3 7 29 8 12 21 35 19 20 11 48 32 -11 68 16 17 100 41 74 22 -6 28 90 96 83 57 61 47 39 136 36 92 34 80 42 37 108 -18 -2 -8 88 146 -40 -45 -46 58 89 85 -49 51 72 103 65 94 56 -37 147 60 63 -47 71 -48 139 -58 128 137 -38 105 86 106 -12 -28 99 -1 129 78 -78 79 91 81 -14 -41 -26 -85 -7 87 104 131 123 -20 145 -5 117 95 -29 -10 140 -99 -66 102 121 112 142 -31 -15 -32 -108 -17 -52 133 -74 141 -50 -34 -69 -53 118 -70 -80 -121 -67 135 -9 -102 -43 -82 -128 -39 144 -57 -19 -64 -60 -84 -86 -25 -42 -139 -23 -98 -16 -13 -65 -30 -24 -3 148 149 -27 -151
right_child=1 2 -4 5 6 10 40 9 24 13 27 52 33 14 15 31 38 18 23 -21 -22 59 76 30 25 26 50 54 75 69 70 -33 114 -35 -36 55 67 53 43 82 66 125 -44 44 45 46 62 49 113 -51 109 116 -54 -55 -56 130 64 -59 110 -61 -62 -63 132 143 73 101 -68 115 93 -71 -72 -73 111 -75 -76 -77 77 -79 119 -81 126 -83 134 84 122 -87 -88 -89 -90 -91 -92 -93 -94 -95 -96 -97 97 98 -100 -101 124 -103 -104 -105 -106 -107 107 -109 -110 -111 -112 -113 -114 -115 -116 -117 -118 -119 -120 120 -122 -123 -124 -125 -126 -127 127 -129 -130 -131 -132 -133 -134 -135 -136 -137 -138 138 -140 -141 -142 -143 -144 -145 -146 -147 -148 -149 -150 150 -152
leaf_value=0.066497027270552928 -0.029149075358930861 0.024242252223149345 0.072464263851949692 0.030836383352872386 -0.039926164884776259 0.048170586198672816 0.058895853261829695 -0.021352308625868496 0.074364489585080865 -0.03986195795495711 0.050615878421212825 0.032557668262576167 0.029366706951246102 -0.033158571533399066 -0.014430264079006832 -0.012471093964102646 0.046761928424416385 0.039056778490609088 0.0078108983116278573 -0.036222608370367969 -0.02854557661980452 -0.028158633729521286 -0.0022986591241521519 0.023224160475855741 0.073319451419497902 0.06386380766287178 0.058711498698538062 0.050256259040976414 0.023372130051451542 -0.032902653716004725 0.058233271764471607 -0.037652310937910057 0.070573913263505109 -0.038237670127363468 -0.027236354493677367 -0.042951389431240605 -0.03464637558697297 0.014946162948856215 -0.036363054694431213 0.051664891346153416 -0.040691126112390806 0.0054855993782228175 0.069694610844004981 -0.033776910487593438 -0.030252817974413933 -0.017531732080015169 -0.022612634701916001 0.039548568084481824 0.070198909861908368 -0.034147055021597095 -0.030617383694723523 0.049983795747364293 -0.027001638178122869 -0.029586119616186683 0.072311171685275913 0.00064242277816425506 -0.025487018157046553 -0.023815213539412315 0.02128011898213527 0.062699429905254095 0.035561899465786743 -0.017979052627643648 -0.01899574868858464 -0.036578483041390011 -0.030646782158749164 0.03326051339359138 0.064054746409583488 -0.032201670890816686 -0.032770001811322579 -0.036894667563589272 0.065065734889551308 -0.029707390903418958 0.0070530003159446387 -0.040452190987099637 -0.043262946743841436 0.037650756346885701 0.057475891331845025 -0.024913894263666157 -0.036081120339055243 -0.033320584745566241 0.049174532092775017 -0.024848578631468981 0.03213238560859482 0.066077536132079034 0.040002647658624921 -0.04374912424486093 -0.038209106561489313 -0.026858962956685918 -0.037197104275595791 -0.034575204443053495 -0.02577141672834567 -0.016042506119826015 -0.043699377395470036 -0.040984358383059354 0.055933711955861005 -0.035660549020098298 0.073873075827133747 0.045134192413260416 -0.011885349883396269 0.050125357993478795 0.013546506782008989 0.052605694243602355 -0.039872471312823239 -0.033420382629803395 0.016997927138637767 0.0081425516086208998 0.041385189447045369 -0.013804015859367063 -0.03582286169356743 0.049307216918554782 -0.03543080021293888 -0.031154628319608121 -0.0023680323243102644 0.0034488685606762397 0.013322464504902392 -0.025130230969611669 -0.033073688105332226 -0.037774665708337436 0.072662334253910124 0.0050746828583946258 -0.030254182966370158 -0.042672267684656567 0.044524886840437358 0.018486272316733908 -0.018707300817518889 -0.014533315653525518 0.026017727842355974 -0.010878538187298132 -0.023896616667846201 0.0031587970991682466 0.049515961555546696 -0.017388041282311386 0.066454961379612265 -0.023460217631746702 -0.044541371472980783 -0.043471826562539277 -0.015833641917022655 0.012249210296469944 -0.038194790942441388 0.054135278538173938 0.068389162861418953 -0.042298758592199476 -0.026442339679475717 0.064158170486034158 -0.036634696643551595 0.025339533856941484 -0.044587714997957412 0.069861516279461466 0.058230212933573812 -0.041443809410903254 0.020759724570420964
leaf_weight=9469.217536598444 9354.1819222718477 3822.8613777160645 116266.6916103512 2970.7983759641647 6787.6272446662188 2098.8935544043779 2672.1845960170031 11196.683979287744 1325835.1170700043 2134077.843986854 17584.938282623887 11972.122152879834 5988.6923228502274 8796.7159606218338 15236.37187743187 21601.388211086392 4080.8919766247272 2370.5986950099468 15727.0106895715 28432.118538886309 160033.87369461358 4674.7598859965801 34811.348653718829 7410.1456334292889 345841.91909824312 5497.434600636363 2122.0614219009876 3332.111765563488 48457.746933624148 4111.3415488153696 9238.8108037114143 860953.61043055356 24289.195379644632 32537.578485652804 36349.973805516958 6760.0410202145576 522174.20002284646 9633.5021860897541 269658.46737991273 10589.960988163948 81903.189456313848 45161.776231586933 21973.963129833341 175376.95402050018 92386.382670164108 10331.009075149894 2353.7679314762354 11851.902779340744 32255.95333224535 5053.5847813040018 1310.8033398091793 8904.2753099501133 32532.744619905949 12618.746964767575 486046.68007022142 3563.1909576356411 6240.4016587585211 2410.1894749850035 5424.9945869147778 61420.445102334023 11040.230766028166 5068.7747685313225 974.12474584579468 664.61073461174965 1434.1376443654299 3201.0209577828646 1312.2607212662697 240723.18499080837 354946.95900288224 141480.26967875659 29736.746967956424 2041.730074480176 7552.9545874893665 2001.4591893702745 1063.9894375950098 23974.803626537323 4033.028512775898 3285.496607080102 43112.669107958674 24153.420590683818 7109.291199862957 12905.610212445259 2239.0305506587029 94132.255827948451 1518.188415825367 2596.0139497518539 18943.797447711229 19643.280874788761 41385.059126719832 28003.430634230375 17188.670116528869 45580.215136766434 3552.0691878646612 558284.94430848956 12910.304267391562 2841.3850226998329 591628.10377258062 28061.606702953577 7329.8916933834553 11618.439986541867 7111.3103307932615 10534.472951263189 41231.630708903074 2981.8125207424164 14976.887596234679 9806.3591064810753 9947.7331052720547 5674.6721480935812 43243.507770031691 15187.450003489852 23015.293707445264 16396.777529150248 15099.598563313484 1760.4952813237906 2493.8572312444448 375790.85082282126 1200.6423485726118 862538.1127242893 1193.2728096991777 13748.357733413577 22763.00829577446 2012.011765986681 5398.1231556534767 7294.6388550251722 109176.89385591447 28040.255958423018 18981.427558466792 8807.6092589944601 8580.1223675310612 35516.781703978777 14342.124508604407 19068.769898682833 14982.049390226603 8280.8090064227581 2197.8050536215305 2429.1357722878456 9907.9455579072237 6998.4490292817354 13428.45268265903 1174.6690001934767 335825.55897630751 17123.73636816442 2099.8784944862127 6513.1451911330223 1758.2561263591051 10340.518285989761 1921.3470016270876 33719.50496403873 90033.007478058338 2284.6521117687225 5105.5368800908327
leaf_count=1577 15892 4900 8279 2293 21706 1341 1005 20486 38952 7503389 11277 17213 6973 14935 18721 81618 2567 1678 32014 73223 509005 14586 95000 13359 17932 1479 744 2316 108022 8592 7553 2761710 5640 138003 121105 11332 1724546 19214 830112 10323 154560 134189 3433 554310 286393 40102 9042 7398 7932 7481 3300 5675 117853 38475 53945 10778 8928 6651 7393 22768 19580 17821 3233 2727 2372 4939 644 827695 1208783 542575 11324 4956 11774 3336 2648 39582 1857 5211 179272 86681 8127 27527 4235 27950 1518 5102 79723 68774 78145 50232 44317 127419 6844 1972033 10649 6596 54552 28896 17723 5188 19516 6861 65544 10494 36557 28660 8438 10295 109201 11528 53113 29399 16775 4602 5905 884408 2072 3018706 173 29473 69291 7043 6781 8548 428178 104662 38380 30654 22734 107010 16927 38358 5842 18102 9975 4831 29460 9693 30539 1044 51789 26458 8107 1917 7788 13896 5259 6754 40386 5133 6287
internal_value=0 -0.0235066 -0.0306193 0.0323132 0.0655357 0.0495283 0.00206494 -0.0321733 0.0695458 -0.0327793 0.0619409 0.0182801 0.000340033 -0.0343128 -0.0319301 -0.0288156 -0.0207768 -0.00898844 0.00233947 -0.0114434 -0.0124139 0.0480695 -0.00552788 0.0238649 0.0706227 0.0631108 0.0452939 0.0692167 0.00754632 -0.027304 0.0392396 -0.0328665 0.0505767 -0.0132985 -0.00429651 0.0306617 -0.0295699 -0.0150617 -0.0292819 0.0102091 -0.0330887 -0.0142501 0.0555219 -0.0297879 -0.0246345 -0.0151337 0.00314997 -0.0122469 0.0583477 0.0175218 0.0148213 0.0019942 -0.0129962 0.00302071 0.0711386 0.0156685 0.000255462 0.0568323 -0.0117568 0.0560966 0.00989987 0.0298922 0.0504467 0.0250087 0.0139853 0.0151371 -0.0354657 -0.0309898 -0.0374367 -0.0318978 0.0514039 0.0422706 -0.0127807 0.030354 0.0554319 0.0189843 -0.0167419 0.0205332 -0.0181444 -0.0117872 0.0112079 -0.00765819 0.0347096 0.0707147 0.0620093 -0.00264631 -0.0196305 -0.0105486 -0.0283086 -0.0230735 -0.00972839 -0.00605493 -0.00977226 -0.0377095 0.0413126 0.0107362 0.0727265 0.0704718 0.0333249 0.0412339 -0.0222986 0.0365042 -0.0295926 0.0137291 0.00624676 -0.0114007 0.0350836 0.0213423 -0.028047 0.0429571 -0.0243568 -0.0191153 -0.0206553 0.066766 0.0652744 -0.0278918 0.0401151 -0.0362086 -0.0324167 -0.0273168 -0.0169533 0.00392806 0.020939 -0.00563335 -0.0167335 -0.00218241 0.0214215 0.0143291 -0.00335507 0.0137665 0.039818 -0.0111416 0.0611998 -0.00574861 -0.00586303 -0.0113466 0.000882351 -0.0367454 -0.0209249 -0.0116127 0.0718881 -0.0291947 0.0237366 0.0547927 0.0212642 0.00403005 0.00118224 0.058259 0.0544578 0.0281033 0.00150172
internal_weight=0 8.82701e+06 7.82937e+06 997646 3.15624e+06 774110 187550 7.7131e+06 2.96869e+06 7.63942e+06 618124 88297.9 155986 7.10445e+06 4.97038e+06 3.17481e+06 1.06374e+06 445838 240858 38965.3 534970 81235.3 374936 104832 2.92973e+06 641045 191725 529826 173108 223537 71916.1 2.11107e+06 33305.9 122680 90142.6 73678 1.25011e+06 111425 617905 24381 106315 136026 27718.2 613824 344166 168789 76402.3 63400.2 38711.4 16905.5 52675 36176.7 49586.6 46579.9 505130 45959.8 28054.5 139050 58092.3 74447.6 21371.2 24695.4 18309.9 13027.2 21294.4 33961.1 103642 1.13869e+06 1.79557e+06 199156 54598 19626.7 26071.8 15054 10533.2 109708 201828 7318.53 194510 114886 53792.6 18894.3 15026.8 449320 103478 4694.91 57675.3 38731.5 62824.4 46494.8 32915.7 90732.1 6522.87 1.77696e+06 19083.8 6173.5 2.28868e+06 962845 35391.5 13052.6 204980 15747.5 88691.3 17053.8 19088.2 18603.1 24861.2 15622.4 64844.9 16498.3 36721.1 23949.7 47459.7 34016.4 26783.1 616514 10104.9 1.21868e+06 356140 79624 36511.4 5213.03 9345.45 18491.3 116288 73202 34898.3 27789 18213.6 85732.8 17905.3 21439.4 15956.2 13705.8 4436.84 3947.32 17318.1 102330 20426.9 5849.43 927454 32360.1 14072 7177.76 50216 45151.9 5744.21 136640 102921 12887.6 7390.19
internal_count=26877324 26156581 24708280 1448301 720743 671655 261189 24700001 459554 24627548 280204 172644 391451 23153896 15650507 9407217 2918773 1088984 513792 77448 1473652 64748 964647 156760 382106 190194 131182 107560 356547 776646 80429 6488444 20682 370769 232766 72453 3726734 290085 1829789 40425 196441 357032 13592 1827222 997110 442800 156407 94145 18977 14879 64492 49664 153667 99266 73506 58861 31156 66690 138290 43042 59682 34054 18117 20274 19824 60791 195436 3436649 6243290 736221 37610 16233 41917 10896 4225 262402 608100 7068 601032 322996 111661 34500 24533 59012 41080 6443 193646 113923 118181 79266 76331 236315 9137 6199695 19561 8912 191912 152960 46619 7560 575192 18843 127498 35814 45149 43595 26286 18733 190819 14828 78608 41173 61954 12534 11545 1712103 7747 4227662 1208956 278036 98764 11982 13130 29034 447694 238851 77161 69034 41948 222820 27705 40036 9075 25495 14210 6349 42819 194792 40232 15630 106341 45179 25320 4644 115810 108896 10159 60039 53285 12899 11420
cat_boundaries=0 11 132 148 164 175 296 312 328 344 360 364 380 395 399 427 441 448 467 482 483 498 503 504 506 522 523 542 543 558 574 588 603 604 606 621 622 638 639 647 655 666 668 683 699 715 717 720 721 723 724 726 742 770 772 773 775 777 779 781 783 788 789 791 798 800 816 817 833 835 837 838 839 840 842 843 845 847 849 851 865 877 879 881 882 898 900 915 931 933 935 937 939 941 942 944 945 946 948 950
